,0,1,2,3,4,5,6,7,8,9,10,11,12,13,14,15,16,17,18,19,20,21,22,23,24,25,26,27,28,29,30,31,32,33,34,35,36,37,38,39,40,41,42,43,44,45,46,47,48,49,50,51,52,53,54,55,56,57,58,59,60,61,62,63,64,65,66,67,68,69,70,71,72,73,74,75,76,77,78,79,80,81,82,83,84,85,86,87,88,89,90,91,92,93,94,95,96,97,98,99,100,101,102,103,104,105,106,107,108,109,110,111,112,113,114,115,116,117,118,119,120,121,122,123,124
0,-0.5000000000000003,-8.049999999999981,-3.191891195797325e-16,0.8499999999999999,6.0499999999999865,1.0,1.0,1.4500000000000004,-0.40000000000000024,1.0,1.0,1.0,1.0,1.0,1.0,1.0,1.0,-0.7000000000000005,1.0,-1.2000000000000008,1.4000000000000004,-6.799999999999985,3.099999999999997,2.25,1.0,-1.0000000000000007,0.5999999999999996,1.1,2.4499999999999993,0.09999999999999969,0.8499999999999999,1.0,0.34999999999999964,4.94999999999999,1.0,0.8499999999999999,1.0,-1.0000000000000007,1.0,1.0,4.599999999999992,0.5999999999999996,2.25,1.0,1.0,3.4999999999999956,0.049999999999999684,1.0,0.5499999999999996,0.7999999999999998,2.000000000000001,1.0,1.0,3.149999999999997,3.399999999999996,-6.2999999999999865,1.0,1.0,1.0,3.8499999999999943,0.29999999999999966,-0.45000000000000034,1.0,0.6499999999999997,1.3500000000000003,3.4499999999999957,-0.7500000000000006,2.849999999999998,2.25,-7.999999999999981,0.7999999999999998,3.099999999999997,-7.899999999999982,4.149999999999993,1.7000000000000006,0.95,-2.7999999999999985,1.0,1.0,1.1,2.6499999999999986,1.0,0.7499999999999998,1.0,1.0,2.3,2.0500000000000007,-8.049999999999981,1.0,-2.100000000000001,0.8999999999999999,1.7000000000000006,1.0,1.0,1.05,1.0,1.0,1.0,4.549999999999992,1.0,1.0,1.0,2.799999999999998,-8.049999999999981,-2.699999999999999,2.799999999999998,-8.049999999999981,1.0,3.4499999999999957,1.0,1.0,0.6499999999999997,5.899999999999987,1.0,1.0,0.8999999999999999,1.9500000000000008,0.6999999999999997,-0.10000000000000032,1.0,1.0,1.0,-8.049999999999981,1.0,1.1
1,-0.15000000000000033,5.04999999999999,1.9500000000000008,1.1500000000000001,6.149999999999986,1.0,1.0,1.4500000000000004,0.34999999999999964,1.0,1.0,1.0,1.0,1.0,1.0,2.1500000000000004,1.0,-0.20000000000000034,1.0,0.24999999999999967,0.8999999999999999,-3.3499999999999965,1.0,-1.6500000000000012,1.0,-0.3500000000000003,1.7500000000000007,-3.0499999999999976,-3.0999999999999974,-0.05000000000000032,0.8499999999999999,1.0,-0.6500000000000005,-1.0000000000000007,1.0,2.25,1.0,-0.7500000000000006,1.0,1.0,-1.0500000000000007,0.8499999999999999,-2.4,1.0,1.0,-0.4000000000000003,1.05,1.0,2.4499999999999993,3.999999999999994,2.9499999999999975,1.1,1.0,1.8000000000000007,2.9999999999999973,-2.0000000000000013,1.0,1.0,1.0,-0.5000000000000003,-1.2500000000000009,-0.4000000000000003,1.0,-0.8500000000000006,0.7499999999999998,1.2500000000000002,0.6499999999999997,0.24999999999999967,1.8000000000000007,4.799999999999991,2.3,0.4999999999999996,1.9500000000000008,-3.8499999999999948,-1.0000000000000007,0.6999999999999997,3.349999999999996,1.0,1.0,1.1500000000000001,0.1499999999999997,1.0,0.29999999999999966,1.0,1.0,0.5499999999999996,-1.1000000000000008,4.199999999999993,1.0,3.2999999999999963,0.7999999999999998,0.1499999999999997,1.0,1.0,1.0,1.0,2.3999999999999995,1.0,0.09999999999999969,1.0,1.0,1.0,-1.2000000000000008,-1.350000000000001,-2.599999999999999,1.3000000000000003,1.5000000000000004,1.0,3.049999999999997,1.0,1.0,1.9000000000000008,-2.8499999999999983,1.0,1.1,1.1,2.849999999999998,0.8999999999999999,-0.4500000000000003,1.0,1.0,1.0,6.549999999999985,1.0,-0.4500000000000003
2,-0.4000000000000003,-7.999999999999981,3.149999999999997,0.7499999999999998,5.04999999999999,1.0,1.0,4.94999999999999,-2.699999999999999,1.0,1.0,1.0,1.0,1.0,1.0,1.0,1.0,1.3500000000000003,1.0,-2.7999999999999985,0.8499999999999999,-7.749999999999981,0.5999999999999996,0.95,1.0,2.5999999999999988,4.699999999999991,0.24999999999999967,3.8499999999999943,3.1999999999999966,0.6499999999999997,1.0,-0.25000000000000033,2.1500000000000004,1.0,2.6499999999999986,1.0,0.24999999999999967,1.0,1.0,-0.3000000000000004,0.7499999999999998,3.7499999999999947,1.0,1.0,2.1500000000000004,0.19999999999999968,1.0,-0.7500000000000006,-0.6000000000000004,0.24999999999999967,1.0,1.0,1.7500000000000007,2.2,-4.999999999999991,1.0,1.0,1.0,5.249999999999989,1.6000000000000005,3.7499999999999947,1.0,1.2000000000000002,1.5500000000000005,-0.7500000000000006,-1.2000000000000008,2.4499999999999993,2.799999999999998,-7.999999999999981,4.849999999999991,4.099999999999993,-8.049999999999981,-0.8500000000000006,1.9000000000000008,0.5999999999999996,5.14999999999999,1.0,1.0,0.7999999999999998,0.6499999999999997,1.0,2.849999999999998,1.0,1.0,2.6499999999999986,1.1500000000000001,-8.049999999999981,1.0,-2.150000000000001,2.000000000000001,2.6499999999999986,1.0,1.0,0.8999999999999999,1.0,4.849999999999991,1.0,4.99999999999999,1.0,1.0,1.0,-1.300000000000001,-8.049999999999981,-1.0500000000000007,0.8999999999999999,-8.049999999999981,1.0,-1.9500000000000015,1.0,1.0,-2.4999999999999996,1.7500000000000007,1.0,1.0,-0.3500000000000003,-2.3000000000000003,0.6999999999999997,1.0,1.0,1.0,1.0,-8.049999999999981,1.0,-1.350000000000001
3,-0.6500000000000005,-8.049999999999981,2.9999999999999973,0.7499999999999998,4.899999999999991,1.0,1.0,5.04999999999999,-1.400000000000001,1.0,1.0,1.0,1.0,1.0,1.0,1.1,1.0,-0.3500000000000003,1.0,-2.2000000000000006,0.8999999999999999,-4.5999999999999925,1.4500000000000004,1.6500000000000006,1.0,2.6999999999999984,2.9999999999999973,-0.20000000000000034,5.4999999999999885,2.9499999999999975,0.5999999999999996,1.0,-3.191891195797325e-16,2.9499999999999975,1.0,3.5499999999999954,1.0,-1.500000000000001,1.0,1.0,0.5499999999999996,1.1500000000000001,2.25,1.0,1.0,2.549999999999999,0.4999999999999996,1.0,-0.5000000000000003,-0.15000000000000033,3.2499999999999964,1.0,1.0,0.8499999999999999,0.24999999999999967,-5.19999999999999,1.0,1.0,1.0,3.7999999999999945,0.8499999999999999,2.9499999999999975,1.0,1.05,0.4499999999999996,-1.9000000000000012,-0.7500000000000006,1.6500000000000006,1.1,-8.049999999999981,3.949999999999994,3.149999999999997,-8.049999999999981,0.1499999999999997,1.1,0.7999999999999998,4.99999999999999,1.0,1.0,0.7499999999999998,0.4999999999999996,1.0,1.8000000000000007,1.0,1.0,1.9000000000000008,-3.191891195797325e-16,-8.049999999999981,1.0,-1.7000000000000013,2.3999999999999995,2.3999999999999995,1.0,1.0,1.0,1.0,4.199999999999993,1.0,6.149999999999986,1.0,1.0,1.0,-1.2000000000000008,-8.049999999999981,-1.0000000000000007,1.2500000000000002,-8.049999999999981,1.0,-0.8000000000000006,1.0,1.0,-0.3000000000000003,1.8000000000000007,1.0,1.0,0.049999999999999684,-0.3000000000000003,0.95,0.29999999999999966,1.0,1.0,1.0,-8.049999999999981,1.0,-3.191891195797325e-16
4,0.049999999999999684,-6.699999999999985,-0.7500000000000006,0.7499999999999998,5.299999999999989,1.0,1.0,0.6499999999999997,1.8000000000000007,1.0,1.0,1.0,1.0,1.0,1.0,1.0,1.0,0.7999999999999998,1.0,-2.699999999999999,0.8499999999999999,1.6000000000000005,2.0500000000000007,-1.9000000000000012,1.0,-1.6500000000000012,0.6499999999999997,-0.9000000000000006,2.6999999999999984,-0.10000000000000032,0.95,1.0,0.049999999999999684,4.6499999999999915,1.0,1.9500000000000008,1.0,0.19999999999999968,1.0,1.0,3.699999999999995,0.5999999999999996,3.4999999999999956,1.0,1.0,4.299999999999993,0.09999999999999969,1.0,-0.7000000000000005,-0.10000000000000032,0.8499999999999999,1.0,1.0,2.9999999999999973,3.5499999999999954,-1.7000000000000013,1.0,1.0,1.0,3.649999999999995,1.6500000000000006,0.24999999999999967,1.0,1.05,1.4500000000000004,-0.6500000000000005,-0.7500000000000006,1.8500000000000008,2.2,-7.999999999999981,1.6500000000000006,3.099999999999997,-6.349999999999986,4.749999999999991,2.4499999999999993,0.6999999999999997,-2.2500000000000004,1.0,1.0,0.8499999999999999,3.049999999999997,1.0,3.2499999999999964,1.0,1.0,2.4499999999999993,1.4000000000000004,-8.049999999999981,1.0,-1.400000000000001,0.95,0.34999999999999964,1.0,1.0,1.0,1.0,2.9499999999999975,1.0,2.849999999999998,1.0,1.0,1.0,2.799999999999998,-8.049999999999981,-2.4,1.05,-4.649999999999992,1.0,-1.9500000000000013,1.0,1.0,-1.1500000000000008,5.749999999999988,1.0,1.0,0.24999999999999967,-1.450000000000001,0.7499999999999998,-0.4000000000000003,1.0,1.0,1.0,-7.799999999999982,1.0,-1.0500000000000007
5,-0.15000000000000033,-5.29999999999999,0.8499999999999999,0.5499999999999996,2.3499999999999996,1.0,1.0,-0.35000000000000037,3.049999999999997,1.0,1.0,1.0,1.0,1.0,1.0,1.0,1.0,0.8999999999999999,1.0,-1.7500000000000013,0.5999999999999996,1.5500000000000005,1.05,-2.2000000000000006,1.0,0.4499999999999996,1.0,0.8499999999999999,2.6499999999999986,-0.7500000000000006,0.6999999999999997,1.0,0.1499999999999997,4.99999999999999,1.0,1.4500000000000004,1.0,0.4499999999999996,1.0,1.0,1.8500000000000008,1.0,3.7999999999999945,1.0,1.0,2.849999999999998,0.5499999999999996,1.0,-0.6000000000000004,-3.191891195797325e-16,0.29999999999999966,1.0,1.0,-3.191891195797325e-16,2.9999999999999973,-0.6500000000000004,1.0,1.0,1.0,2.4499999999999993,2.3499999999999996,-0.15000000000000036,1.0,1.5500000000000005,0.8999999999999999,-1.2500000000000009,-0.9500000000000007,1.1500000000000001,1.5500000000000005,-7.899999999999982,2.3999999999999995,2.2,-2.899999999999998,2.9499999999999975,-0.15000000000000033,0.6999999999999997,-0.8000000000000006,1.0,1.0,0.7999999999999998,0.7999999999999998,1.0,0.5999999999999996,1.0,1.0,2.549999999999999,1.7500000000000007,-7.349999999999983,1.0,-1.300000000000001,0.7499999999999998,2.7499999999999982,1.0,1.0,1.0,1.0,4.199999999999993,1.0,2.849999999999998,1.0,1.0,1.0,4.299999999999993,-3.8499999999999948,-2.2000000000000006,0.8499999999999999,-1.8500000000000014,1.0,-0.45000000000000034,1.0,1.0,-0.10000000000000032,2.849999999999998,1.0,1.0,0.09999999999999969,0.5499999999999996,1.0,-1.6500000000000012,1.0,1.0,1.0,-6.349999999999986,1.0,-0.7500000000000006
6,-0.4000000000000003,-7.999999999999981,0.5499999999999996,0.7999999999999998,0.29999999999999966,1.0,1.0,2.799999999999998,1.0,1.0,1.0,1.0,1.0,1.0,1.0,1.0,1.0,-1.5500000000000012,1.0,-2.2500000000000004,0.7499999999999998,-1.450000000000001,2.25,1.3000000000000003,1.0,2.25,-0.3500000000000003,2.000000000000001,7.99999999999998,2.0500000000000007,0.7999999999999998,1.0,-0.15000000000000033,5.299999999999989,1.0,-1.0000000000000007,1.0,0.8999999999999999,1.0,1.0,0.19999999999999968,0.95,4.749999999999991,1.0,1.0,2.8999999999999977,0.19999999999999968,1.0,-0.4500000000000003,-0.7000000000000005,-0.6500000000000005,1.0,1.0,0.1499999999999997,3.4499999999999957,-6.949999999999984,1.0,1.0,1.0,5.349999999999989,1.3500000000000003,1.8500000000000008,1.0,0.4999999999999996,0.4499999999999996,0.24999999999999967,-0.7000000000000005,3.2499999999999964,-0.6000000000000004,-8.049999999999981,2.1500000000000004,3.649999999999995,-7.999999999999981,5.299999999999989,2.000000000000001,0.7499999999999998,-1.9000000000000012,1.0,1.0,0.8999999999999999,1.4500000000000004,1.0,4.3499999999999925,1.0,1.0,3.2499999999999964,0.7999999999999998,-8.049999999999981,1.0,-2.3000000000000003,2.1500000000000004,3.1999999999999966,1.0,1.0,0.95,1.0,2.3499999999999996,1.0,6.449999999999985,1.0,1.0,1.0,0.6499999999999997,-8.049999999999981,-2.4499999999999997,0.7999999999999998,-8.049999999999981,1.0,-3.6999999999999953,1.0,1.0,-1.8500000000000014,6.299999999999986,1.0,1.0,0.29999999999999966,-1.9500000000000015,0.8499999999999999,0.5499999999999996,1.0,1.0,1.0,-8.049999999999981,1.0,-0.8500000000000006
7,0.09999999999999969,-8.049999999999981,0.34999999999999964,0.95,2.1500000000000004,1.0,1.0,-0.05000000000000032,-1.9000000000000012,1.0,1.0,1.0,1.0,1.0,1.0,1.0,1.0,-0.7500000000000006,1.0,-1.450000000000001,0.7999999999999998,-4.0499999999999945,3.099999999999997,0.4999999999999996,1.0,0.29999999999999966,-0.15000000000000033,1.7000000000000006,4.499999999999992,0.6499999999999997,0.5999999999999996,1.0,0.29999999999999966,4.94999999999999,1.0,-1.300000000000001,1.0,2.1000000000000005,1.0,1.0,3.4999999999999956,1.1,4.94999999999999,1.0,1.0,4.049999999999994,0.4999999999999996,1.0,0.4499999999999996,-0.20000000000000034,2.3999999999999995,1.0,1.0,1.6000000000000005,4.149999999999993,-6.349999999999986,1.0,1.0,1.0,5.899999999999987,1.6500000000000006,0.7999999999999998,1.0,1.4500000000000004,0.6499999999999997,-0.9500000000000007,-0.10000000000000032,3.049999999999997,1.1500000000000001,-7.999999999999981,4.6499999999999915,4.499999999999992,-7.9499999999999815,5.299999999999989,1.5500000000000005,0.7999999999999998,-2.5499999999999994,1.0,1.0,0.6999999999999997,0.8499999999999999,1.0,4.3499999999999925,1.0,1.0,1.8500000000000008,2.1000000000000005,-8.049999999999981,1.0,-1.400000000000001,0.95,2.000000000000001,1.0,1.0,1.2000000000000002,1.0,3.149999999999997,1.0,4.849999999999991,1.0,1.0,1.0,1.1500000000000001,-8.049999999999981,-1.400000000000001,0.95,-8.049999999999981,1.0,-1.0500000000000007,1.0,1.0,-1.400000000000001,7.7499999999999805,1.0,1.0,0.29999999999999966,-2.2000000000000006,0.6999999999999997,-0.05000000000000032,1.0,1.0,1.0,-7.999999999999981,1.0,-3.191891195797325e-16
8,0.34999999999999964,-8.049999999999981,2.549999999999999,0.7499999999999998,3.699999999999995,1.0,1.0,5.299999999999989,-2.050000000000001,1.0,1.0,1.0,1.0,1.0,1.0,1.0,1.0,-0.05000000000000032,1.0,-2.599999999999999,0.4999999999999996,-8.049999999999981,1.2500000000000002,1.6000000000000005,1.0,2.000000000000001,2.5999999999999988,0.7499999999999998,4.099999999999993,1.05,0.24999999999999967,1.0,0.24999999999999967,-0.05000000000000032,1.0,4.6499999999999915,1.0,-0.7500000000000006,1.0,1.0,-1.8000000000000014,0.7999999999999998,3.599999999999995,1.0,1.0,0.95,0.5999999999999996,1.0,-0.8000000000000006,-0.7000000000000005,1.5500000000000005,1.0,1.0,1.2500000000000002,0.95,-3.3499999999999965,1.0,1.0,1.0,5.599999999999988,2.3999999999999995,2.799999999999998,1.0,2.9999999999999973,0.1499999999999997,1.2500000000000002,-1.350000000000001,1.6000000000000005,2.849999999999998,-8.049999999999981,4.549999999999992,2.9499999999999975,-8.049999999999981,-3.499999999999996,3.149999999999997,0.34999999999999964,3.7999999999999945,1.0,1.0,0.8999999999999999,1.1500000000000001,1.0,1.3000000000000003,1.0,1.0,3.049999999999997,2.3999999999999995,-8.049999999999981,1.0,-1.450000000000001,1.0,1.5000000000000004,1.0,1.0,0.8999999999999999,1.0,4.199999999999993,1.0,5.04999999999999,1.0,1.0,1.0,-2.050000000000001,-8.049999999999981,2.3,0.8499999999999999,-8.049999999999981,1.0,0.1499999999999997,1.0,1.0,-0.35000000000000037,2.9999999999999973,1.0,1.0,-0.05000000000000032,-0.6000000000000004,0.7499999999999998,1.4000000000000004,1.0,1.0,1.0,-7.9499999999999815,1.0,1.6000000000000005
9,-0.8000000000000006,3.2999999999999963,3.099999999999997,0.4499999999999996,3.2999999999999963,1.0,1.0,2.2,-0.050000000000000294,1.0,1.0,1.0,1.0,1.0,1.0,1.05,1.0,1.2500000000000002,1.0,0.19999999999999968,1.05,-6.2999999999999865,0.8999999999999999,-0.6500000000000005,1.0,-0.3000000000000003,1.6500000000000006,-0.15000000000000033,-1.7000000000000013,-0.20000000000000034,0.6999999999999997,1.0,-0.20000000000000034,0.8999999999999999,1.0,2.8999999999999977,1.0,0.09999999999999969,1.0,1.0,0.6499999999999997,0.8499999999999999,0.24999999999999967,1.0,1.0,0.6999999999999997,0.95,1.0,1.5500000000000005,1.9500000000000008,4.849999999999991,1.0,1.0,0.4999999999999996,0.4999999999999996,-4.949999999999991,1.0,1.0,1.0,0.1499999999999997,-0.3000000000000003,-3.191891195797325e-16,1.0,-0.7500000000000006,0.24999999999999967,2.5999999999999988,-0.20000000000000034,0.6999999999999997,2.5999999999999988,3.699999999999995,0.6999999999999997,0.8999999999999999,1.05,-4.149999999999994,1.05,0.7499999999999998,0.8499999999999999,1.0,1.0,1.05,1.1,1.0,-0.6000000000000004,1.0,1.0,0.8999999999999999,0.09999999999999969,1.5500000000000005,1.0,0.8499999999999999,0.95,0.4999999999999996,1.0,1.0,0.95,1.0,2.25,1.0,1.4500000000000004,1.0,1.0,1.0,-1.7500000000000013,-1.2000000000000008,-2.649999999999999,0.7999999999999998,-4.249999999999994,1.0,3.099999999999997,1.0,1.0,2.0500000000000007,-1.300000000000001,1.0,1.0,-0.25000000000000033,3.7499999999999947,0.7999999999999998,0.95,1.0,1.0,1.0,5.349999999999989,1.0,-0.6500000000000005
