,0,1,2,3,4,5,6,7,8,9,10,11,12,13,14,15,16,17,18,19,20,21,22,23,24,25,26,27,28,29,30,31,32,33,34,35,36,37,38,39,40,41,42,43,44,45,46,47,48,49,50,51,52,53,54,55,56,57,58,59,60,61,62,63,64,65,66,67,68,69,70,71,72,73,74,75,76,77,78,79,80,81,82,83,84,85,86,87,88,89,90,91,92,93,94,95,96,97,98,99,100,101,102,103,104,105,106,107,108,109,110,111,112,113,114,115,116,117,118,119,120,121,122,123,124
0,1.1130600068292325,-8.017417937120364,7.68113123616331,-7.680771452395495,6.216779726724423,7.314846037395574,2.5978553618539912,2.054538816684769,-7.5734459628554855,-7.517718621648607,-5.240203557634146,0.06657966267979809,4.136264418479355,-4.4571537048769585,2.6511526636511427,-2.307194842758986,6.546670804868869,-3.152934544479432,-5.954758945042965,-7.982921486316073,1.7595723877830935,-5.325218738784389,-1.1363114963762087,0.35542463011056646,-3.624735353373852,0.27989182899391296,3.182703284915104,-5.509392212861247,0.5354875566458758,5.304243793388936,-6.10123224798133,-7.725073775083072,4.013847747147258,-7.889271943591927,4.031320062653219,4.6941218242242,-0.12304210301748064,-8.01234713417746,-7.955211247315836,-3.5929295404045405,-2.6783865605552437,-6.598810640929775,-6.71985300996611,-0.7093885624143006,-7.716322894846952,6.933224223540201,-2.5540649700006,4.154367756674805,-2.7448443493851347,1.13537522670797,0.9406623366133816,-1.7300627746475126,4.09239011941094,-7.983007977088256,-2.0125239215427917,-6.672477252815738,2.876726359018237,-3.7104680102474017,3.217833160633081,7.9667134260337455,2.175511946573251,-3.5618122208714995,2.1907444042283037,1.7145695760093307,0.1968622236849211,-1.8929136327007665,-1.1638925500090795,-4.392642434446293,7.926577547271446,-8.007738636538967,-3.2291565209688398,-7.904029706000369,-7.951730534008654,-7.324051979577204,7.965981796514651,4.554066311979419,6.56312106335524,6.652529478536259,2.053552808804593,-7.177650555831848,7.940724315834297,-0.08601348438464948,-5.6657045650193805,-0.6649107272314083,-1.7612575398925134,0.012976881813655337,8.00236673168403,-8.019752701308848,-2.9074821402409086,-3.1795377949482413,-0.003154483325322484,1.8972598148552953,-7.07078406702929,-4.215076058179056,-3.5930850908144936,1.6886370230312036,7.987471664956194,-3.7164107655046426,4.665906153068992,-7.6701864543818115,-7.8111267693893325,-6.874865808994613,-2.7295246689301838,-8.005301373840917,1.3871875278850097,5.317525434669929,-8.010749282436247,-7.95325357595037,1.172039293762258,-4.453701876643624,-2.164700414858469,-7.636596800286595,-4.627415521804444,3.613729974705432,-0.22029122235465298,7.972727761655483,-1.0922869876798884,-4.71785293854102,3.7952576170184433,-4.844167000759418,-1.9743207700457575,-0.08008742157582383,-7.974653767412821,2.1778812194675474,6.023586968693543
1,-7.981941770576647,6.481519781041222,-7.971400938407983,6.0095348362259,8.013594331766194,-2.9346014420176942,3.829047357739121,-7.73586895045703,0.2177611899450715,0.6553313801967473,6.949852440985845,7.319282844340686,0.08255968331044627,-3.0272491088220495,-7.427005655551399,-1.6646723577817713,2.754583042895595,8.006897564111203,-3.0302341812524123,4.2135031823831435,2.270142086763692,-2.566968014014614,1.1110513850346235,8.012513884505863,7.049998865309503,-7.950067083169664,-3.5018301908041978,-3.3958416529850104,-7.914773201765179,-6.912390767308111,5.581700633471943,-0.2942426004736003,-7.0262828485823565,-7.919051654844264,4.581852944041643,-7.931702814301888,-0.8835469185458251,3.0320841162887056,2.1302881286687416,4.7844537527900926,7.271711923790331,0.7691556517375076,-7.695907402711052,1.5932419364388224,6.952844023278844,-7.958447133860508,-4.135374183308961,-6.215953631609716,7.998001138245558,6.643885942086582,-7.63375566037886,2.262851673291525,-2.8540627012198563,8.00223666713442,7.60631851667714,-1.6834186273884912,-3.64313572582744,-2.032999515316316,5.817930724823958,7.194345168821842,1.1633727109237433,-6.766718460968594,-6.495367570301488,-3.1999876161215925,-3.910013444691985,1.1434263406991492,0.602244635513067,-0.5309750818409661,-1.3407994665548428,6.897888931626351,-7.060106117008354,-8.005593813621845,3.3385046333746944,-3.9908133796372067,-7.9831322991571945,-3.629940393642603,-3.1275420945490953,-2.8803298472702323,-1.164155957710129,-6.655019436876502,3.2851134331954324,-6.372957787245557,3.155183975758533,-1.3570539331181148,7.705768450023331,-7.994458827447149,1.7027274945627595,7.585096267751107,-6.96995405601332,7.976167712590856,2.3205079139594225,-7.624557658354206,1.119677883119932,-7.2618088206561975,6.432463248119147,-6.314131131867164,1.0245272819318623,3.0344811715855755,-7.945189507018826,-1.2075586750240905,-4.17321679543846,-3.0544130441781583,-0.009613241479664865,-0.5921165942477136,-7.856291478305598,7.9885387794567055,-6.180814300088958,-7.665495631929245,-2.1570665574476786,-5.925789343045123,-3.987739309318423,5.950392723307732,-7.972188594902134,-6.68690647420925,0.11258270956912142,-8.010195267838007,5.124522132108183,4.10500132908078,2.8606068691073605,6.534547586114421,-6.949343426349106,-3.800924173209472,7.389239681019154,-5.554377058518996,-7.225795038931237
2,-8.007717093033012,-8.012074549924641,0.6801939310582136,0.9678865637337157,1.3658008577079257,7.114080354798428,3.7643049682298884,7.913999020448477,-8.000960169866413,-2.466367566210467,1.9615696338231476,-6.393055469220915,0.5030983126055268,-2.0865244461746,0.2608506835295952,0.3064937954774041,6.060532354604092,1.2043702902301943,-3.478166746127995,-1.8164855734642706,5.547638092757879,-7.96853921468588,-6.2760547990112245,-7.90709763907061,-6.435755962769745,-2.854398600201196,4.570031239131853,1.7064170754049646,0.8810346473634867,-6.13495974003089,-3.702135605505993,6.435706122664975,-0.7708379771258528,-1.4263969996347379,-3.2875523407864176,7.914805844469923,-7.039497004759493,-2.1453380168358183,-0.1741093015816464,6.2704024068013275,-3.084258115459463,2.188435171111117,3.550167164502016,-7.926885547660357,-5.693189299195099,4.810262392245207,-2.604714917449268,4.149403296521797,-7.912469013097333,-5.978716417968827,5.844075486180078,5.408454996855426,2.6003836052946454,-1.8671994285915592,4.214254525598072,-8.008343256490596,-0.261826684467362,-1.4772811233386918,-6.721074474511173,7.898230196514778,7.732055964097118,7.89345746197627,1.3868807578747702,5.333814105055658,4.6534242401738615,0.39209386145431135,-5.352960140432145,-7.986585449196445,4.159481097070489,-7.994886718274982,1.5381425088689253,-3.704722467329294,-8.012664346765947,-8.013034341350792,2.7393713495325307,2.96116921058214,7.982398989208383,-7.57202037642325,-2.790424828342827,-5.714181477041601,1.913728460292564,5.757066710817201,-3.6739254241706045,4.89778600866952,0.6308275135775876,-3.1572617286677884,-1.7057787203101538,-8.010205502006308,1.5773751952956019,7.7190037505678415,-3.4970304935204917,3.3432014305567423,3.5874731799826325,4.3600112610302535,-0.7462231916709582,5.253901579579816,-2.0059566107999407,-4.926916980595893,2.981036510740788,3.025597882489148,-6.5641655988517424,-4.628614464534701,-4.508983967367132,-8.005728347151894,-5.100957906207365,-6.207907262401237,-8.003285214308399,5.256457355910587,-6.4696879280148325,6.818946906568485,3.51683387287329,-7.959992590096778,-8.003998568668807,-0.5455195135185615,6.046521408974938,-6.98197428794185,-1.5364202278905597,-4.179210403761931,-0.245220575794475,0.681467028857254,4.90950448526182,-5.008578359983096,-7.97815291801199,2.0322478378411777,-5.1507804578849115
3,-3.8989789496141976,-8.01232180522911,-0.38996381485229037,1.4407698384076402,1.5594598811019922,-0.1595192782627901,-7.536609865923863,-5.881858167629626,7.636059537319946,-1.6327528091853907,-6.205637272574643,-7.9035745053804725,-1.0154216997922259,4.98022304431451,1.6129566909954711,0.5081377394811103,-4.375314715162675,-2.870104778249489,-0.2186522800100601,7.939608521682922,-0.7144711486167061,-6.075826959718016,7.841561618068459,-7.963671429443021,6.043231798244342,-7.843046309648328,-0.8182557530010004,-7.319162626019153,-7.6387870813890615,-3.8531588999653383,-5.050437452277327,6.684977247369231,-1.3398522061017688,-6.052831057411208,-7.8554513392141505,-6.456295616101726,-3.421802021513857,-3.6113403400254374,-7.464101010245537,5.7863973942643,6.813235459999545,-7.896503755540154,-3.0109650757294117,5.446880601242295,0.11944734326764994,6.695818765473687,3.391244093417796,-6.153571795146512,2.536310962432096,6.621831573679384,4.6884461222935645,2.048776881113806,-4.042657411541223,2.1283441481880883,7.683904444142833,-4.249795774174043,0.8108321353232011,-0.3493573018015663,5.177842213826603,-4.447469009992982,-6.451615694123296,1.8846313247316084,0.21024459949958718,-7.9840991678902,-1.6098794174107007,-7.460241958328032,-5.9099391509681,7.995841509198479,5.678068051697725,-8.011978051812278,7.810451884215087,7.9319295810625725,-8.01153990531595,5.833635805954409,-7.982365712308232,5.391288173948599,-2.473764355608337,2.323458332988409,-1.8117313272603628,0.15950734344283876,-8.01944781308217,-6.957057852688681,-6.448079175886955,7.364318519091897,-3.4511080020909546,7.95130303644893,-5.16338259168429,-8.00046911011426,4.779998670286279,-4.93848429196248,4.648530683271705,1.717053351362747,-6.720114196462328,-4.443151626439411,-8.00128888666122,-0.6528539256094259,0.6075931454421472,3.162333688102848,-2.9462091094626084,-0.4968177072697646,-3.4447807209790806,6.567057609835855,2.0019643282715447,-8.009591817991206,-4.091311887346152,-2.2212067572097345,-8.018714083722202,-7.653706534592963,6.7495301471558005,7.533009307453593,5.094106162022706,0.06618221126329717,6.411246728733913,-0.28795432960088085,-4.26153464124533,-6.979218990454912,1.3889139836085918,-0.029152557054365997,-2.283821766685295,-5.742044974527065,-3.9117093056914527,-7.031569518745318,-8.001852422591037,-2.54558025495448,-7.864918188864593
4,0.6751857098952829,-3.1599594862630536,-2.417670381525256,-6.895630587496413,3.5111818448843772,-3.9551497123509876,7.4875138215697365,7.7974064762512025,-7.798312287069068,-3.9433715287788758,5.6884518199059055,3.0943077430677945,0.19331082570278824,3.997876579997822,-3.906882323426766,0.2191636844017832,-0.05960483019737417,-3.871225221585441,-5.506427586577427,-7.928187501765491,-6.816931746773838,4.64187786531089,-0.07683038712959643,-3.9372479346902285,-6.590293469420981,-7.944535249681985,8.006271994056153,-6.58872928798071,-0.9435250248086355,-1.4257481311100981,1.3349571503231055,-3.8362500094307492,-8.00007061856161,-1.2143352207861928,-6.5269872036758905,7.08835954308998,-4.068802262321119,-5.359374587541881,-5.466211404435704,7.676286490508062,-0.5528461767084852,-2.3686615470396175,8.009521300939564,-7.6925604953308895,-1.4534902095522053,7.516237861840491,2.022336069760741,5.895017747921958,3.612040108234824,-2.5881058520877436,2.446033889377267,-2.167442992811539,7.147427436984511,-7.898588585510252,-7.67704749300723,-8.017833287465987,6.495980994523288,-3.758080456321524,2.6488958093133625,7.94282057603993,6.418875608640578,-3.707225669172153,5.820337065112174,7.9967188672261,-2.9239259414661096,5.85350477750542,2.4665690890708265,4.759190466775072,-4.79873802926091,-8.000754873685569,-0.31627983931176784,-7.992980358857668,-7.797509608212707,4.637375892404609,7.9011364329711675,-7.975313222622201,2.7916566455642835,-7.451521115596185,-7.25793646278747,-0.8771974723856379,-3.5412142240781574,8.007105764188951,7.889442471841498,1.644072389713715,-7.579637874565956,-7.370692274969973,1.6740592494651307,-8.010735009840351,6.01046853271686,0.9715378203173435,-1.3184465731105903,-6.580163194505903,-7.429325464712916,1.210755242221051,6.244662167745874,-3.8740306100824764,7.644116357031523,0.739808579582359,-2.6454025348130763,0.9276413431169956,0.3102711710010482,-1.0795586993326332,6.442207531357284,-8.016225592733075,6.201450035165841,6.132202441596988,-7.954152303371254,5.571247418446239,-1.318848157348699,-4.766871835302531,0.011244693355843438,-4.108306710951862,-5.329586798516893,-7.552118973104214,4.915962534702322,2.439930568629866,-7.773857091494008,4.264678966875602,7.231814281374552,3.3874666666658264,6.137752035754774,5.802961102076864,-7.828248912747593,-3.3581835570939784,-4.4389874491976125
5,-7.261724429518846,5.234118566108417,-7.837401507188739,5.781137759141064,-7.421934960493209,2.8012546448494877,-6.173216326617169,-8.010687852683347,7.336362789055338,7.19238638453216,4.375212491818747,5.66124405040909,3.10374478263296,1.3612399116280542,1.2028843204120676,-1.4783595136294951,-2.8839856375550372,7.897532631610101,0.6439830558619395,6.532098941742202,6.40452829386888,6.170963060817693,-0.3933783012422908,0.8132330817163638,-0.6642312496100065,3.684886001412659,3.040143334079369,2.6438746511693645,5.93798267922379,-7.699759598772184,-5.952990785949535,5.425270554616366,-3.9362402910029424,2.2433600954994533,-2.6002019126536435,-7.7647149650057035,-2.439600381296719,-1.9443702272606327,-7.465753459103055,-7.94521805103923,7.557079480634741,-5.424332332648589,6.9117979787178,-5.039214855510771,-7.407878800654968,7.551967395828928,-6.471277719286434,-3.5613305878164248,-6.735459863625756,-8.013605082604894,-7.866054108267328,-0.7376429760691856,-7.1876480127094595,2.105002988289798,-6.409547738336606,-2.781476299134455,-1.67309677592268,4.4377251889499,2.2051180499291316,5.848585046074895,7.824958054876689,-7.644060560984165,1.6299374817817327,7.739804780934765,2.1476557728839656,-2.065060186582156,-0.8487390723534117,-0.14680163884436187,0.14793637295539325,-6.996470691830326,-0.0819259170938109,-5.117688157988901,2.8772050989897013,1.5305756722850743,6.6033225243569404,7.1998692083964855,-7.834188493461378,-7.8700463585115195,-3.3258712083195974,-6.743511472068031,-4.199304431505922,7.249570179015972,-0.503844638850519,0.22554527686089187,-6.736817882143447,0.5817932370008809,-5.47813308872429,-4.527589114105667,-0.5346219285240448,-2.5875056677933403,3.21965701715561,-0.9801001870333554,-1.1242983623080054,4.878103904628114,2.784441832903356,-2.1461794777059957,-0.593599442857742,5.911724055153279,-7.379912408615093,-3.058064856586057,1.3615930374685234,-0.23988736443144276,7.973590980425936,-7.9387993310791,-7.841317335617278,2.1350578590420373,-1.774582331102944,-7.851436874805254,-6.5361775823859505,6.821479993195702,4.843983926491806,-5.61788657039109,-5.5082996877343255,5.8319369796197655,-1.8659229813187364,-7.969196446058962,-2.086939671258375,2.707253939834224,-3.1037602446143273,3.4105767608706223,1.6007788056424985,5.637749916162198,-7.7288536967864,-0.725430118373275,-2.9507758062186165
6,-5.0564970444096495,-1.7587031460526152,-8.011093053126581,-3.8410223540026545,-7.994097461836175,5.6947966436325395,-5.447253171243254,-5.674453240290017,1.4544945666419575,3.0380307582574986,-0.7199352204565788,-3.7290184984904453,-7.058652780194578,5.471906309016081,6.295181182550076,4.414753388172722,-6.988670475683152,-8.010553623791195,7.058184591504984,-8.012729034496287,-2.2384232297310382,7.841519882338588,3.632198648211885,7.726291487480724,-6.4271608811689305,3.132499947513442,-8.009140559700933,7.808979262789636,7.887247431171415,7.967351510003915,-0.48032136861633923,5.041651485675645,-4.021120827127047,7.905626760617977,1.3770116163141388,-8.00188347239439,-0.6828544936813632,-5.249762013521535,3.849185222453089,-7.55989909745286,-7.315163561582245,-0.17055977440441694,7.8614014666717065,3.2732801505258227,6.801189675762592,7.894488870267688,-5.429568623436193,-3.6852063820200343,-2.565067075404664,-7.999568014418045,-1.4737787251101957,7.681006784158365,-0.9947499514153861,-7.451397649485052,-7.988910147837258,-8.008926994877019,-0.33585679270637847,-5.588922472186422,-6.754774523583979,7.442977716601659,5.568230095798922,-0.9222157300565565,-1.4845255130717714,3.4521824292190733,0.05472961520777431,-8.010710960563808,0.17885252213049274,5.239801211120217,-8.000851365134375,-7.877829235257607,-4.13061371328356,-2.2944087525901082,-1.4290151381312677,7.732805698527603,5.0941313367080845,2.7984035375158034,-7.701090110087684,-1.0688686535986136,-3.750660144053583,7.540476727064133,-4.067768186659356,-5.058645530763302,7.980091946504363,-2.7984376949814234,-7.111155331984895,-7.583573978987628,2.786793422255674,-8.008687778276256,-3.251975938068263,-6.468742642710796,3.205979831615848,-7.606907665320714,-1.4946917152749233,-7.625919537077452,7.302582475398504,5.5737399958143055,-7.799811110408939,3.9838447475412213,7.732024458140241,-5.6960108418817725,5.233115527086499,2.4969739803012363,-2.662286449825731,-8.008241741456928,-7.735330239692781,2.57052328674992,-8.008472994901478,7.208144422948294,-7.945624353563689,4.79927522620255,-7.222211531891471,-7.9514575512322345,7.965966247787572,5.537860705841922,-4.381440609130806,1.8871780745526374,-8.010514513699112,-2.3907042632704565,2.0361117407806404,2.344318720548749,-5.89823284835888,4.5349014962428065,2.566024829377538,0.06641942086326402,-4.152722069378274
7,7.913569252413366,-8.008229806803861,-5.0927229361450745,-4.241142954800937,-6.831268303288111,-3.1260713889411047,0.552836300312773,-2.2425280929566096,0.8335162056179355,3.075908836681192,0.1826448095562263,7.3852572568916734,3.6072487205328727,-3.4640196115607296,0.5786762457120904,-0.12963065830753473,-5.701862253045936,5.216130537694564,-1.240459894195551,-8.019446781965947,-1.552539151445191,-0.7104379763885594,-2.718553797710537,1.703843180062217,4.122579191416355,-1.6032005969939664,-7.8221932993371475,-7.192605904053683,7.854250020113232,-6.2138291397963314,-5.196993241009913,-3.1557014969525596,2.026131856418935,-5.298487690073514,-3.3832256195281563,-7.034934778097931,0.2443504508230685,-6.706177419396527,1.5401361194309988,-7.030521649683859,-6.384801800306368,8.016086333306633,4.081252006009416,2.5506655961072013,-2.131692532029522,0.782641334378698,-3.1331637143845574,6.607575673573606,1.9163401618226377,5.20731653647745,-6.297946296497346,1.1559505793839158,4.386844692126719,-0.6216682507675961,3.412656218846968,-4.57179662549951,-6.003327660326606,1.4630360418152755,-1.5796841208394454,7.826169254370994,7.931629557884641,7.52250384253958,-1.9414916750926867,7.913931597301779,-8.01838314598022,4.07533515274439,-3.4472158259473016,-3.5953142689135085,7.917259705129938,-7.95473938270063,2.0246104397732267,6.6943780349671425,-7.985956646885519,-6.560569390251439,1.8457288208470506,0.13409080086731445,-3.9711543030445657,-0.547944503922281,-5.815382542035616,-0.13788571782237982,-5.436993710129007,3.749181606109931,2.9599284357275466,7.817294702281005,-3.9949379528766773,1.9886972646704502,2.483963478194058,-8.01108850957146,-2.4631748847122825,5.023773974370506,-1.8008660063077977,4.5428804143125525,-3.9775448550167685,-4.066949067194228,2.6042618282833194,-2.03618316919019,7.151540597420958,4.178876978852754,7.80255128829018,-7.263407191181404,-7.743120242739245,-5.915987059984582,-3.5453262399143983,-8.000184626560436,0.5339646997047399,-4.255840275950458,-8.016733851279067,-7.2306370015082795,-1.462162385460463,7.909283015315509,3.5334215358410734,-4.748888014945829,7.893022314187373,2.6313650157894095,5.21295224732007,-5.547206978745679,-4.26192312994205,-1.922701377933985,7.936355697684601,-3.16841297461362,1.395358772902311,6.709185817179614,-7.968826970501301,5.9662563871165,3.101538049414188
8,-0.25149767357291564,-7.876860699775316,0.08679851807723682,-4.985018321062745,2.986435859896998,2.224997418749691,-5.998696839106671,6.144765849957151,6.2629238588130125,6.900273890447185,6.446401136265404,1.871113782533067,-2.4835581950465535,4.174325603758479,-7.009580135885363,6.368369059877244,-0.22430576376063627,-7.908224616416344,-3.0596768222515927,0.3733043740378482,-4.412176931936681,-7.9877187550132,1.432056784157127,6.5171564741957075,-7.950485609015919,-5.420337198371362,-7.9822254748821635,3.440878887097769,3.786863306263404,-0.6138141109821437,-4.243975209012181,1.791700325876885,0.8608902438381815,0.012129530418471899,-5.035860606432042,-2.3629512758151217,-3.04591425374735,4.106515876165481,-7.144830870440945,2.0807522809698042,6.4494588322405235,-1.6991742878609313,-3.4188610083940665,1.7834385870262768,-1.9216807608945086,7.012294479083167,7.672888218947817,-1.55582971115847,-3.7201136394966654,-2.342601361660489,-2.289311691828927,6.503795355262987,7.36884390817516,5.255864696976326,0.7101660281995414,-7.842408099352457,0.8996641522930151,1.4441117944490678,-2.224322983965507,3.8332106909123396,-0.8047814298766872,4.110274194629184,-4.421154829237041,-3.045652744552231,-8.013123798889325,-0.7529988545763636,-0.22098965200627468,5.93000733310836,-7.937715093893722,-8.014157145614126,7.680582048801963,7.134229859573032,-7.99986655023571,7.9466173045315855,-5.319045721268116,7.637056246975645,-7.923925886366618,-6.674869494810938,-6.579963280028554,2.716588548156716,-7.99387792096986,-6.627383259510303,2.6785772178649148,-4.857103288665044,1.2669575639521256,3.9287087977154567,-2.056382230984768,-8.013293753826636,-1.1094816720142244,-7.893749812627407,-1.6540233425544528,-1.8331656442654167,4.469380941962116,3.0267461195064094,-5.541248843072978,7.002740397686399,-8.006969319330388,-5.215082115906549,6.362651804837471,-7.506826958369588,-1.6490237365838762,-1.0288067451353715,-1.5913676598470918,-8.015318581036597,-7.748149798584986,6.397935716307229,-8.012395849092805,-6.963494368267597,-7.656054791714496,3.444751629137574,-6.836886560932292,-6.226930673892622,1.0943364594530631,-3.959215491306418,-3.038619463781089,0.28576774298061425,-7.920046711947032,-4.979714009691605,-7.931504422069006,7.218231403030172,1.7380579937721397,3.9467282051448276,-7.888071490420256,6.293252372399593,7.736527000608945
9,-8.002465257577192,7.838099760930959,-2.1947091269344168,-4.82792926011961,-7.526143934682391,-3.4303994287092685,2.906254239327291,7.731655074796899,3.4387089731403573,4.395792910927575,-3.491555856088416,5.365465600539398,-5.477942324773704,2.1717788188441958,-4.866584640518347,-7.54313377492339,-2.8024216298983937,-7.9227226695120585,1.119096196233091,2.191215533769419,1.3587538332034668,-7.986741432895457,-4.553676461638253,-4.987420571049453,-7.284970434653198,5.242723241343211,-5.06136295198969,2.027268345888244,2.5840703360998796,-7.404266934992513,-0.5430836442827104,-0.1121806429482195,2.3736726903205847,7.880172394144555,7.940152275153528,7.819970778543762,-7.899470562154516,-1.9868045132689738,3.5335715372767904,5.2108248343833985,0.7730408829463531,-2.69899936058176,-2.045163560204304,-5.338749114402095,-7.2909409094064195,-0.8689833626572763,6.0001453884536335,-2.131753797426107,3.0160105116563694,-7.22682675064522,7.97636902136256,3.8587980194484057,3.275089242167157,-7.674306721168586,-4.382214677145149,-2.2593086742426176,-2.581025021035643,3.6681151713472353,5.240898529819914,-6.964561983400785,-6.390795056660991,4.559202982603882,-5.98231448695396,-3.664039261868298,-2.156955326284917,-0.514759865883522,-6.898431613346885,2.763644912831884,-1.4402115932475994,7.8154166502838045,2.589447953050478,3.918127925901747,6.660501355182559,-7.846778580432192,4.452382139353532,5.362948170754958,-5.140874723589732,-4.328841303904236,-1.2881951273623606,2.5296326999560663,2.3252649973476744,5.924636139127966,1.3798935138657527,4.175177061397855,-3.5347958059347118,-5.690207258802184,-6.807922420187728,-0.4798282059179626,-4.198469821255161,-7.4903504053976935,-5.660503157121854,-2.939386752043121,3.7451674789021787,-2.5871510713417596,-2.668493449022646,-3.0351171914853126,-7.141264418003716,-5.814602062358661,3.1016043655821663,-5.915819454789526,-1.3876852908969504,6.852903974128491,-7.966427030222764,-2.4032834511175785,-7.975383367659569,-5.169275477615484,-7.984380030279173,-2.833549688370157,5.765850185111609,-4.766327631661619,-5.250702701054701,2.4140343058543605,7.521084589143138,-5.689184665075102,6.350488657091232,-1.0611006303616468,8.010384175595709,7.257755656924923,-4.581298909081081,5.087106055508759,-4.365637605428104,5.81684109732028,7.601215164773405,-5.349368850709363,4.856318160024285
