,0,1,2,3,4,5,6,7,8,9,10,11,12,13,14,15,16,17,18,19,20,21,22,23,24,25,26,27,28,29,30,31,32,33,34,35,36,37,38,39,40,41,42,43,44,45,46,47,48,49,50,51,52,53,54,55,56,57,58,59,60,61,62,63,64,65,66,67,68,69,70,71,72,73,74,75,76,77,78,79,80,81,82,83,84,85,86,87,88,89,90,91,92,93,94,95,96,97,98,99,100,101,102,103,104,105,106,107,108,109,110,111,112,113,114,115,116,117,118,119,120,121,122,123,124
0,-0.10693999317076817,-8.017417937120364,4.7011312361633735,-7.740771452395494,2.696779726724469,7.314846037395574,2.5978553618539912,-2.265461183315234,-7.993445962855477,-7.517718621648607,-5.240203557634146,0.06657966267979809,4.136264418479355,-4.4571537048769585,2.6511526636511427,-2.387194842758986,6.546670804868869,-3.6329345444794323,-5.954758945042965,-3.442921486316157,0.4795723877830924,-8.005218738784333,-2.2763114963762097,0.2954246301105664,-3.624735353373852,-0.3001081710060869,0.24270328491510165,-0.4693922128612761,-0.04451244335412442,5.184243793388939,-5.681232247981339,-7.725073775083072,2.293847747147257,-2.829271943592009,4.031320062653219,3.2341218242242142,-0.12304210301748064,-1.0123471341775423,-7.955211247315836,-3.5929295404045405,-4.23838656055524,-6.198810640929784,-2.7198530099661666,-0.7093885624143006,-7.716322894846952,6.2332242235402155,-0.7140649700005989,4.154367756674805,-2.124844349385134,-1.3246247732920313,-3.779337663386622,-1.7300627746475126,4.09239011941094,-4.963007977088321,0.6474760784572098,-4.932477252815775,2.876726359018237,-3.7104680102474017,3.217833160633081,7.5467134260337545,-1.3044880534267511,-4.1618122208714965,2.230744404228304,-0.7254304239906708,-2.703137776315081,-3.792913632700768,1.8161074499909224,-1.3526424344462988,7.606577547271453,-8.007738636538967,-3.2291565209688398,-5.744029706000415,-8.011730534008652,-7.804051979577194,6.805981796514676,4.834066311979413,5.803121063355256,6.652529478536259,2.053552808804593,-6.857650555831855,7.040724315834316,-0.18601348438464946,-5.645704565019381,-0.6649107272314083,-1.7612575398925134,5.532976881813626,7.762366731684034,-8.019752701308848,-2.9074821402409086,-3.5395377949482416,0.6168455166746778,5.217259814855272,-7.07078406702929,-4.215076058179056,-3.2330850908144932,1.6886370230312036,7.387471664956207,-3.7164107655046426,2.1859061530690043,-7.6701864543818115,-7.8111267693893325,-6.814865808994615,-5.049524668930163,-8.005301373840917,-4.312812472114988,4.437525434669948,-8.010749282436247,-7.95325357595037,5.772039293762223,-4.453701876643624,-2.164700414858469,-4.876596800286653,0.21258447819554588,3.613729974705432,-0.280291222354653,8.012727761655482,3.0477130123201146,-4.23785293854103,4.595257617018431,-4.844167000759418,-1.9743207700457575,-0.08008742157582383,-7.954653767412822,2.1778812194675474,6.803586968693526
1,-7.801941770576651,-1.5384802189587283,-6.171400938408022,5.429534836225912,7.813594331766199,-2.9346014420176942,3.829047357739121,-4.035868950457108,-4.242238810054927,0.6553313801967473,6.949852440985845,7.319282844340686,0.08255968331044627,-3.0272491088220495,-7.427005655551399,-1.384672357781771,2.754583042895595,7.4068975641112145,-3.0302341812524123,-0.566496817616855,2.310142086763692,-3.2669680140146147,0.2710513850346228,7.372513884505876,7.049998865309503,-7.990067083169663,-1.3418301908041963,-1.5358416529850087,-7.994773201765177,-6.832390767308112,5.521700633471944,-0.2942426004736003,-7.34628284858235,-5.919051654844306,4.581852944041643,-7.411702814301899,-0.8835469185458251,4.272084116288701,2.1302881286687416,4.7844537527900926,8.011711923790315,0.9091556517375077,-7.755907402711051,1.6732419364388225,6.952844023278844,-7.998447133860507,-4.195374183308959,-6.215953631609716,7.498001138245567,1.2238859420866366,-7.893755660378854,2.4028516732915253,-2.8540627012198563,7.942236667134422,7.846318516677135,-1.403418627388491,-3.64313572582744,-2.032999515316316,5.817930724823958,4.214345168821906,3.163372710923745,-3.186718460968652,-6.515367570301487,-1.6399876161215912,-5.750013444691948,2.32342634069915,-1.177755364486934,-0.25097508184096584,-1.1607994665548427,7.3978889316263405,-7.6601061170083415,-1.8655938136219277,0.6585046333746927,0.589186620362796,-7.883132299157197,-3.909940393642603,3.99245790545091,-2.8803298472702323,-1.164155957710129,-7.515019436876484,4.345113433195426,-6.092957787245563,4.055183975758533,-1.3570539331181148,7.705768450023331,-3.1944588274472334,3.0227274945627607,7.965096267751099,-6.96995405601332,8.016167712590855,2.4805079139594226,-7.864557658354201,1.119677883119932,-7.2618088206561975,6.132463248119153,-6.314131131867164,3.4245272819318644,3.0344811715855755,-5.965189507018867,-1.2075586750240905,-4.17321679543846,-3.0544130441781583,-3.4696132414796677,-2.272116594247715,-8.016291478305595,7.948538779456706,-5.880814300088964,-7.665495631929245,0.14293344255232304,-5.925789343045123,-3.987739309318423,3.5303927233077728,-7.432188594902145,-6.68690647420925,0.11258270956912142,-8.010195267838007,3.9045221321082066,3.945001329080782,2.6206068691073603,6.534547586114421,-6.949343426349106,-3.800924173209472,6.009239681019183,-5.554377058518996,-7.405795038931233
2,-8.007717093033012,-8.012074549924641,-1.659806068941788,1.4078865637337161,4.785800857707911,7.114080354798428,3.7643049682298884,7.933999020448477,-7.980960169866414,-2.466367566210467,1.9615696338231476,-6.393055469220915,0.5030983126055268,-2.0865244461746,0.2608506835295952,0.04649379547740409,6.060532354604092,-3.055629709769809,-3.478166746127995,3.163514426535733,5.247638092757885,-8.008539214685879,-5.116054799011249,-7.947097639070609,-6.435755962769745,-4.854398600201179,0.3100312391318626,6.486417075404914,-4.2789653526365115,-4.27495974003093,-3.822135605505993,6.435706122664975,0.06916202287414765,1.373603000365264,-3.2875523407864176,3.114805844470005,-7.039497004759493,-1.825338016835818,-0.1741093015816464,6.2704024068013275,2.8357418845405413,2.8684351711111176,2.8901671645020155,-7.926885547660357,-5.693189299195099,4.710262392245209,-0.0647149174492664,4.149403296521797,-7.012469013097352,-3.638716417968869,4.4440754861801075,5.388454996855426,2.6003836052946454,2.1728005714084437,6.034254525598033,-7.228343256490612,-0.261826684467362,-1.4772811233386918,-6.721074474511173,4.578230196514848,7.912055964097114,4.59345746197634,1.4468807578747702,0.9738141050556837,5.293424240173848,-1.68790613854569,-7.052960140432109,-5.7665854491964925,1.2794810970704902,-8.014886718274981,-0.9218574911310762,-0.8447224673292913,-7.9726643467659475,-8.013034341350792,1.1393713495325295,1.9411692105821392,7.702398989208389,-7.57202037642325,-2.790424828342827,-5.714181477041601,1.0737284602925632,5.677066710817202,-4.893925424170586,4.89778600866952,0.6308275135775876,-0.9372617286677865,-5.2857787203101285,-8.010205502006308,1.5773751952956019,6.099003750567876,-3.2170304935204914,6.7432014305566845,3.5874731799826325,4.3600112610302535,-1.4862231916709587,5.253901579579816,-0.6859566107999395,-4.926916980595893,-1.5589634892592152,3.025597882489148,-6.5641655988517424,-4.628614464534701,-4.908983967367123,-8.005728347151894,-4.980957906207368,-6.327907262401235,-8.003285214308399,5.256457355910587,-1.2496879280148832,6.818946906568485,3.51683387287329,-6.819992590096803,-2.10399856866889,-0.5455195135185615,6.086521408974937,-5.8819742879418735,-1.5764202278905597,-4.4792104037619245,-0.8852205757944756,0.681467028857254,4.90950448526182,-5.028578359983095,-7.998152918011989,2.0322478378411777,-4.910780457884917
3,-2.8589789496141966,-8.01232180522911,-0.8699638148522908,1.26076983840764,3.1794598811019936,-0.1595192782627901,-7.536609865923863,-2.521858167629665,4.256059537320018,-1.6327528091853907,-6.205637272574643,-7.9035745053804725,-1.0154216997922259,4.98022304431451,1.6129566909954711,-0.5718622605188901,-4.375314715162675,-1.7101047782494878,-0.2186522800100601,4.899608521682986,-0.4744711486167059,-6.975826959717997,7.881561618068458,-5.743671429443069,6.043231798244342,-7.843046309648328,-1.2782557530010008,-7.539162626019149,-2.0787870813891365,-3.1531588999653377,-4.670437452277335,6.684977247369231,-0.4198522061017681,-6.532831057411197,-7.8554513392141505,-5.956295616101737,-3.421802021513857,-2.3513403400254362,-7.464101010245537,5.7863973942643,2.4932354599996036,-7.516503755540162,-2.9709650757294117,5.426880601242296,0.11944734326764994,7.03581876547368,2.211244093417795,-6.153571795146512,2.296310962432096,3.2018315736794394,5.328446122293551,2.048776881113806,-4.042657411541223,1.3283441481880878,6.86390444414285,-5.129795774174024,0.8108321353232011,-0.3493573018015663,5.177842213826603,-2.12746900999299,-1.8916156941233462,2.9246313247316094,0.1502445994995872,-4.784099167890268,-1.2298794174107004,-8.00024195832802,-6.809939150968081,8.015841509198479,7.878068051697678,-8.011978051812278,6.650451884215112,7.851929581062574,-8.01153990531595,-0.786364194045555,-3.0623657123083152,4.771288173948612,-0.7937643556083357,2.323458332988409,-1.8117313272603628,0.03950734344283875,-8.01944781308217,-6.857057852688683,-4.748079175886991,7.364318519091897,-3.4511080020909546,5.5513030364489815,-1.0233825916843127,-8.00046911011426,4.779998670286279,-8.018484291962414,4.848530683271701,1.4570533513627468,-6.720114196462328,-4.443151626439411,-7.721288886661226,-0.6528539256094259,2.6675931454421486,3.162333688102848,4.713790890537382,-0.4968177072697646,-3.4447807209790806,6.567057609835855,2.0019643282715447,-8.009591817991206,-4.991311887346133,-2.0412067572097343,-8.018714083722202,-7.653706534592963,6.509530147155806,7.533009307453593,5.094106162022706,-2.1738177887367045,3.4912467287339646,-0.28795432960088085,-4.26153464124533,-5.8392189904549365,-1.6510860163914103,0.15084744294563399,1.1961782333147073,-5.742044974527065,-3.9117093056914527,-7.031569518745318,-8.001852422591037,-2.54558025495448,-7.98491818886459
4,-0.9248142901047178,-5.919959486263013,-1.8976703815252556,-7.215630587496406,2.351181844884376,-3.9551497123509876,7.4875138215697365,7.617406476251206,-4.238312287069144,-3.9433715287788758,5.6884518199059055,3.0943077430677945,0.19331082570278824,3.997876579997822,-3.906882323426766,0.1791636844017832,-0.05960483019737417,-4.571225221585429,-5.506427586577427,-7.868187501765492,-6.8769317467738365,0.1818778653109,0.763169612870404,1.6827520653097752,-6.590293469420981,-8.004535249681984,7.926271994056155,-6.228729287980718,2.3164749751913667,1.594251868889904,0.07495715032310467,-3.8362500094307492,-7.340070618561624,2.54566477921381,-6.5269872036758905,3.968359543090046,-4.068802262321119,-0.5993745875419063,-5.466211404435704,7.676286490508062,-1.772846176708486,-2.708661547039618,7.609521300939573,-7.6925604953308895,-1.4534902095522053,7.676237861840487,3.402336069760742,5.895017747921958,5.61204010823479,-1.1881058520877423,-1.3339661106227358,-2.167442992811539,7.147427436984511,-6.57858858551028,-4.757047493007292,-8.017833287465987,6.495980994523288,-3.758080456321524,2.6488958093133625,7.722820576039934,2.3588756086406275,-3.1472256691721525,5.820337065112174,7.896718867226102,-2.083925941466109,4.593504777505447,2.6465690890708267,7.67919046677501,-7.678738029260849,-7.96075487368557,-0.7762798393117682,-6.232980358857706,-7.997509608212702,1.6573758924046207,7.981136432971166,-7.935313222622202,-0.3483433544357184,-7.451521115596185,-7.25793646278747,-0.8571974723856379,-3.181214224078157,7.947105764188953,7.949442471841497,1.644072389713715,-7.579637874565956,-3.8506922749700445,-0.40594075053487044,-8.010735009840351,6.01046853271686,1.9715378203173444,-1.8584465731105908,-3.9801631945059577,-7.429325464712916,1.210755242221051,5.824662167745883,-3.8740306100824764,3.324116357031599,0.739808579582359,-4.065402534813076,0.9276413431169956,0.3102711710010482,-1.1395586993326332,3.1422075313573354,-7.996225592733076,4.161450035165885,5.552202441597,-7.994152303371253,5.571247418446239,-1.8588481573486995,-4.766871835302531,0.011244693355843438,-1.7483067109518624,-2.8495867985169205,-7.552118973104214,4.755962534702325,2.479930568629866,-4.093857091494087,4.064678966875606,6.211814281374574,3.3874666666658264,6.137752035754774,5.802961102076864,-7.98824891274759,-3.3581835570939784,-5.198987449197596
5,-7.221724429518847,-0.805881433891561,-7.917401507188737,5.701137759141066,-4.521934960493271,2.8012546448494877,-6.173216326617169,-1.77068785268343,4.316362789055402,7.19238638453216,4.375212491818747,5.66124405040909,3.10374478263296,1.3612399116280542,1.2028843204120676,-1.0383595136294947,-2.8839856375550372,6.217532631610136,0.6439830558619395,4.892098941742237,5.924528293868891,1.2109630608177362,-0.9533783012422913,-0.5667669182836369,-0.6642312496100065,5.244886001412633,3.7801433340793698,0.5838746511693628,7.937982679223747,-6.139759598772217,-5.932990785949535,5.425270554616366,-3.0962402910029416,2.5233600954994535,-2.6002019126536435,-3.9847149650057827,-2.439600381296719,3.8956297727393716,-7.465753459103055,-7.94521805103923,7.8970794806347335,-5.484332332648588,6.491797978717809,-5.039214855510771,-7.407878800654968,8.011967395828918,-6.851277719286426,-3.5613305878164248,-7.935459863625731,-7.9736050826048945,-7.726054108267331,-0.7376429760691856,-7.1876480127094595,3.265002988289799,-6.449547738336605,-5.0614762991344335,-1.67309677592268,4.4377251889499,2.2051180499291316,5.928585046074893,6.684958054876713,-5.524060560984211,1.6299374817817327,7.939804780934761,0.4676557728839641,-1.2250601865821553,-2.0487390723534125,1.0131983611556388,2.9479363729553953,-7.956470691830306,0.21807408290618907,-4.4976881579889145,-4.382794901010295,-4.0294243277149295,5.70332252435696,6.799869208396494,-7.774188493461379,-7.8700463585115195,-3.3258712083195974,-7.123511472068023,-3.5393044315059257,7.069570179015976,1.196155361149482,0.22554527686089187,-6.736817882143447,6.581793237000829,-5.378133088724292,-5.287589114105651,-0.5346219285240448,-2.32750566779334,3.39965701715561,0.7198998129666454,-1.1242983623080054,4.878103904628114,2.4044418329033554,-2.1461794777059957,4.4264005571422524,5.911724055153279,-5.079912408615142,-3.058064856586057,1.3615930374685234,-0.23988736443144276,7.993590980425935,-7.9187993310791,-7.901317335617277,2.3350578590420374,-2.4145823311029444,-7.851436874805254,-2.636177582386003,6.821479993195702,4.843983926491806,-3.9978865703911244,-2.5282996877343566,5.8319369796197655,-1.8459229813187363,-7.8691964460589645,-1.6069396712583748,1.767253939834223,-2.603760244614327,3.4105767608706223,1.6007788056424985,5.637749916162198,-7.908853696786396,-0.725430118373275,-2.7507758062186163
6,-0.556497044409669,-8.018703146052532,-7.7110930531265875,-3.8410223540026545,-7.934097461836176,5.6947966436325395,-5.447253171243254,0.16554675970995095,1.0344945666419572,3.0380307582574986,-0.7199352204565788,-3.7290184984904453,-7.058652780194578,5.471906309016081,6.295181182550076,4.314753388172724,-6.988670475683152,-7.890553623791197,7.058184591504984,-8.012729034496287,-2.2384232297310382,-2.738480117661336,3.1321986482118844,7.806291487480722,-6.4271608811689305,7.492499947513369,-8.009140559700933,8.008979262789632,7.7872474311714175,6.967351510003936,-0.5003213686163392,5.041651485675645,-1.3411208271270447,7.825626760617979,1.3770116163141388,-7.9618834723943905,-0.6828544936813632,-3.5697620135215606,3.849185222453089,-7.55989909745286,-2.9551635615823146,0.10944022559558307,7.8614014666717065,3.2732801505258227,6.801189675762592,0.49448887026776756,-6.089568623436179,-3.6852063820200343,-1.5850670754046632,-7.979568014418046,-2.6537787251101967,7.681006784158365,-0.9947499514153861,-3.5513976494851245,-2.708910147837342,-8.008926994877019,-0.33585679270637847,-5.588922472186422,-6.754774523583979,7.642977716601655,5.268230095798929,1.4377842699434447,-1.4845255130717714,4.452182429219064,0.3947296152077744,-4.490710960563882,3.3788525221304955,2.2598012111202417,-1.1808513651344577,-8.017829235257604,0.6293862867164406,-0.5544087525901067,-5.489015138131238,7.772805698527602,3.7741313367081077,2.6784035375158033,-6.201090110087716,-1.0688686535986136,-3.750660144053583,7.420476727064136,-3.4077681866593563,-5.078645530763302,6.400091946504396,-2.7984376949814234,-7.111155331984895,-6.403573978987653,4.566793422255663,-8.008687778276256,-3.251975938068263,-0.8887426427108468,2.385979831615847,-4.2869076653207845,-1.4946917152749233,-7.625919537077452,7.2225824753985055,5.5737399958143055,-2.239811110409017,3.9838447475412213,7.2120244581402515,-5.6960108418817725,5.233115527086499,2.4969739803012363,-7.9222864498256484,-8.008241741456928,-0.03533023969285823,2.65052328674992,-8.008472994901478,7.208144422948294,-7.985624353563688,4.79927522620255,-7.222211531891471,-7.931457551232235,8.00596624778757,5.537860705841922,-4.381440609130806,5.147178074552615,-8.010514513699112,-2.3907042632704565,2.896111740780641,2.344318720548749,-5.89823284835888,4.5349014962428065,-3.1539751706224664,0.06641942086326402,-1.4527220693782743
7,7.71356925241337,-8.008229806803861,-5.532722936145065,-3.721142954800942,-5.191268303288146,-3.1260713889411047,0.552836300312773,-5.92252809295657,-0.7664837943820654,3.075908836681192,0.1826448095562263,7.3852572568916734,3.6072487205328727,-3.4640196115607296,0.5786762457120904,-0.3696306583075348,-5.701862253045936,3.216130537694589,-1.240459894195551,-6.959446781965969,-1.9725391514451913,-2.870437976388561,-2.538553797710537,1.9238431800622169,4.122579191416355,-3.0232005969939677,-7.922193299337145,1.1473940959462527,7.874250020113232,-5.1338291397963545,-5.416993241009909,-3.1557014969525596,2.326131856418935,-0.7384876900735384,-3.3832256195281563,-5.154934778097971,0.2443504508230685,-5.346177419396556,1.5401361194309988,-7.030521649683859,-6.524801800306365,7.6360863333066415,6.641252006009362,2.5506655961072013,-2.131692532029522,-1.9173586656213035,-3.1931637143845575,6.607575673573606,0.6963401618226367,5.147316536477451,-7.157946296497328,1.1559505793839158,4.386844692126719,-1.521668250767597,2.612656218846967,-3.731796625499522,-6.003327660326606,1.4630360418152755,-1.5796841208394454,7.8861692543709925,4.711629557884709,6.542503842539601,-1.8614916750926866,7.953931597301779,-8.01838314598022,2.17533515274439,-3.847215825947302,-3.155314268913508,7.577259705129945,-8.014739382700629,-1.5153895602267757,5.954378034967158,-7.94595664688552,-7.960569390251409,0.12572882084704926,0.2340908008673144,0.2688456969554367,-0.547944503922281,-5.815382542035616,-0.09788571782237983,-5.436993710129007,3.829181606109931,3.499928435727547,7.817294702281005,-3.9949379528766773,2.3686972646704505,-1.596036521805945,-8.01108850957146,-2.4631748847122825,4.643773974370514,-1.3408660063077973,7.282880414312494,-3.9775448550167685,-4.066949067194228,2.5842618282833194,-2.03618316919019,5.411540597420995,4.178876978852754,7.742551288290181,-7.263407191181404,-7.743120242739245,-5.975987059984581,-4.465326239914389,-8.000184626560436,-3.366035300295263,-4.075840275950462,-8.016733851279067,-7.2306370015082795,-0.9421623854604622,7.909283015315509,3.5334215358410734,-6.448888014945792,7.933022314187372,2.6313650157894095,5.19295224732007,-5.227206978745686,-0.6619231299420537,-2.3427013779339854,7.9763556976846,-3.16841297461362,1.395358772902311,6.709185817179614,-7.888826970501302,5.9662563871165,0.481538049414186
8,1.048502326427085,-8.016860699775313,4.126798518077237,-5.125018321062742,2.7464358598969976,2.224997418749691,-5.998696839106671,7.964765849957113,1.682923858813059,6.900273890447185,6.446401136265404,1.871113782533067,-2.4835581950465535,4.174325603758479,-7.009580135885363,6.588369059877239,-0.22430576376063627,-5.348224616416399,-3.0596768222515927,-3.6066956259621548,-4.732176931936674,-7.887718755013202,1.9120567841571274,4.957156474195741,-7.950485609015919,-6.340337198371342,-8.002225474882163,4.780878887097753,-0.4531366937365987,0.906185889017857,-4.103975209012184,1.791700325876885,0.100890243838181,3.1121295304184744,-5.035860606432042,-0.50295127581512,-3.04591425374735,4.426515876165475,-7.144830870440945,2.0807522809698042,3.309458832240575,-1.7191742878609313,-4.4188610083940585,1.7834385870262768,-1.9216807608945086,4.152294479083228,6.612888218947839,-1.55582971115847,-4.2201136394966605,-3.0026013616604894,-3.109311691828928,6.503795355262987,7.36884390817516,0.55586469697635,3.350166028199544,-7.322408099352468,0.8996641522930151,1.4441117944490678,-2.224322983965507,1.8932106909123378,3.315218570123316,5.25027419462916,-4.421154829237041,2.2143472554477728,-6.953123798889347,6.187001145423594,-1.0809896520062754,4.330007333108394,-4.2177150938938,-8.014157145614126,7.940582048801957,6.2542298595730506,-7.819866550235714,4.5266173045316584,-1.699045721268142,7.257056246975653,-5.883925886366661,-6.674869494810938,-6.579963280028554,2.6565885481567157,-7.233877920969876,-6.6073832595103035,3.7185772178649157,-4.857103288665044,1.2669575639521256,4.668708797715443,0.1636177690152333,-8.013293753826636,-1.1094816720142244,-7.913749812627406,-2.054023342554453,2.426834355734586,4.469380941962116,3.0267461195064094,-5.701248843072975,7.002740397686399,-7.066969319330408,-5.215082115906549,7.8826518048374385,-7.506826958369588,-1.6490237365838762,-1.0288067451353715,-2.5113676598470924,-8.015318581036597,-7.948149798584982,6.437935716307228,-8.012395849092805,-6.963494368267597,-7.9560547917144895,3.444751629137574,-6.836886560932292,-2.7469306738926687,-0.08566354054693748,-3.959215491306418,-3.058619463781089,0.08576774298061429,-6.780046711947056,-4.819714009691609,-6.371504422069039,7.218231403030172,1.7380579937721397,3.9467282051448276,-8.008071490420253,6.293252372399593,5.096527000609001
9,-7.962465257577193,4.278099760931034,-1.7547091269344164,-4.667929260119614,-7.60614393468239,-3.4303994287092685,2.906254239327291,7.9116550747968954,1.4987089731403556,4.395792910927575,-3.491555856088416,5.365465600539398,-5.477942324773704,2.1717788188441958,-4.866584640518347,-7.123133774923399,-2.8024216298983937,-7.542722669512066,1.119096196233091,-0.7687844662305827,1.3987538332034668,-8.006741432895456,-4.4936764616382545,-7.3674205710494025,-7.284970434653198,2.1227232413432358,-7.981362951989627,4.147268345888243,3.8840703360998807,-7.204266934992518,-0.4230836442827103,-0.1121806429482195,2.0536726903205844,7.980172394144553,7.940152275153528,7.819970778543762,-7.899470562154516,-3.2468045132689753,3.5335715372767904,5.2108248343833985,1.2530408829463535,-2.29899936058176,-2.9451635602043047,-5.398749114402094,-7.2909409094064195,-3.5289833626572786,6.020145388453633,-2.131753797426107,4.336010511656363,-7.166826750645221,7.356369021362572,3.8187980194484057,3.275089242167157,-7.93430672116858,2.157785322854847,-3.2993086742426185,-2.581025021035643,3.6681151713472353,5.240898529819914,-7.464561983400773,-7.450795056660969,4.959202982603873,-6.082314486953958,-2.544039261868297,-1.4169553262849164,2.0452401341164794,-7.398431613346874,1.463644912831883,1.5997884067524026,7.795416650283805,0.9094479530504764,4.81812792590173,3.6205013551826144,-7.92677858043219,-0.567617860646461,5.342948170754958,0.019125276410245893,-4.328841303904236,-1.2881951273623606,2.6696326999560664,1.1052649973476736,5.584636139127973,2.3398935138657535,4.175177061397855,-3.5347958059347118,-3.35020725880222,-6.807922420187728,-4.979828205917945,-4.198469821255161,-7.930350405397684,-5.680503157121853,-3.7193867520431216,3.7451674789021787,-2.5871510713417596,-2.668493449022646,-3.0351171914853126,-3.201264418003782,-5.814602062358661,-3.1983956344178384,-5.915819454789526,-1.3876852908969504,6.852903974128491,-7.966427030222764,-3.8832834511175798,-6.5153833676596,-4.949275477615489,-8.004380030279172,-2.833549688370157,5.065850185111624,-4.766327631661619,-5.250702701054701,-2.0059656941456425,7.801084589143132,-5.689184665075102,6.270488657091233,-2.0811006303616475,7.97038417559571,7.197755656924924,-4.441298909081084,5.087106055508759,-4.365637605428104,5.876841097320279,7.281215164773412,-5.349368850709363,2.516318160024302
