,0,1,2,3,4,5,6,7,8,9,10,11,12,13,14,15,16,17,18,19,20,21,22,23,24,25,26,27,28,29,30,31,32,33,34,35,36,37,38,39,40,41,42,43,44,45,46,47,48,49,50,51,52,53,54,55,56,57,58,59,60,61,62,63,64,65,66,67,68,69,70,71,72,73,74,75,76,77,78,79,80,81,82,83,84,85,86,87,88,89,90,91,92,93,94,95,96,97,98,99,100,101,102,103,104,105,106,107,108,109,110,111,112,113,114,115,116,117,118,119,120,121,122,123,124
0,-0.18693999317076815,-8.017417937120364,4.40113123616338,-7.980771452395489,2.4967797267244687,7.314846037395574,2.5978553618539912,-2.1054611833152337,-7.873445962855479,-7.517718621648607,-5.240203557634146,0.06657966267979809,4.136264418479355,-4.4571537048769585,2.6511526636511427,-2.4271948427589862,6.546670804868869,-3.7529345444794324,-5.954758945042965,-3.742921486316157,0.5395723877830925,-7.945218738784334,-2.2963114963762097,0.5554246301105666,-3.624735353373852,-0.6401081710060872,0.1227032849151017,-0.7493922128612763,-0.024512443354124423,5.0642437933889415,-5.881232247981335,-7.725073775083072,2.493847747147257,-2.6892719435920087,4.031320062653219,4.21412182422421,-0.12304210301748064,-1.3123471341775426,-7.955211247315836,-3.5929295404045405,-4.958386560555224,-6.258810640929783,-2.6398530099661666,-0.7093885624143006,-7.716322894846952,5.993224223540221,-0.894064970000599,4.154367756674805,-2.6248443493851346,-1.3646247732920314,-3.819337663386622,-1.7300627746475126,4.09239011941094,-4.803007977088324,0.3074760784572095,-5.692477252815759,2.876726359018237,-3.7104680102474017,3.217833160633081,7.906713426033747,-1.144488053426751,-3.8818122208715,2.230744404228304,-0.6654304239906708,-2.3231377763150807,-3.472913632700768,1.396107449990922,-1.3926424344462989,7.506577547271455,-8.007738636538967,-3.42915652096884,-6.084029706000408,-8.011730534008652,-7.744051979577195,6.825981796514675,4.774066311979414,6.343121063355245,6.652529478536259,2.053552808804593,-6.837650555831855,7.200724315834313,-0.18601348438464946,-5.785704565019378,-0.6649107272314083,-1.7612575398925134,5.7529768818136215,7.98236673168403,-8.019752701308848,-2.9074821402409086,-4.239537794948237,0.7168455166746779,4.9372598148552775,-7.07078406702929,-4.215076058179056,-3.153085090814493,1.6886370230312036,7.7074716649562,-3.7164107655046426,2.4059061530690045,-7.6701864543818115,-7.8111267693893325,-6.814865808994615,-5.509524668930153,-8.005301373840917,-4.472812472114985,4.657525434669943,-8.010749282436247,-7.95325357595037,5.732039293762224,-4.453701876643624,-2.164700414858469,-5.216596800286646,0.47258447819554605,3.613729974705432,-0.280291222354653,8.012727761655482,3.267713012320115,-4.297852938541029,4.395257617018435,-4.844167000759418,-1.9743207700457575,-0.08008742157582383,-7.894653767412823,2.1778812194675474,6.683586968693529
1,-7.881941770576649,-1.4784802189587283,-6.691400938408011,5.369534836225913,7.7335943317662,-2.9346014420176942,3.829047357739121,-4.335868950457102,-3.8422388100549316,0.6553313801967473,6.949852440985845,7.319282844340686,0.08255968331044627,-3.0272491088220495,-7.427005655551399,-1.264672357781771,2.754583042895595,7.866897564111205,-3.0302341812524123,-0.606496817616855,2.310142086763692,-3.386968014014615,0.23105138503462277,7.552513884505872,7.049998865309503,-7.950067083169664,-1.5018301908041964,-1.4158416529850086,-7.85477320176518,-6.7323907673081145,5.481700633471945,-0.2942426004736003,-7.386282848582349,-6.4790516548442945,4.581852944041643,-7.431702814301898,-0.8835469185458251,4.352084116288699,2.1302881286687416,4.7844537527900926,7.431711923790328,0.8491556517375076,-7.915907402711047,1.6932419364388225,6.952844023278844,-7.978447133860508,-4.15537418330896,-6.215953631609716,7.798001138245561,1.3038859420866367,-7.853755660378855,2.4228516732915253,-2.8540627012198563,8.00223666713442,8.006318516677132,-1.6234186273884912,-3.64313572582744,-2.032999515316316,5.817930724823958,4.4743451688219,3.343372710923745,-3.326718460968652,-6.515367570301487,-1.3199876161215909,-5.530013444691953,2.7434263406991506,-1.3177553644869342,-0.410975081840966,-0.9607994665548425,7.297888931626343,-7.820106117008338,-1.7055938136219275,0.9385046333746929,-0.030813379637204225,-7.963132299157195,-3.909940393642603,3.93245790545091,-2.8803298472702323,-1.164155957710129,-7.555019436876483,4.065113433195432,-6.092957787245563,4.075183975758533,-1.3570539331181148,7.705768450023331,-3.4344588274472336,3.222727494562761,7.805096267751102,-6.96995405601332,8.016167712590855,2.4805079139594226,-7.7445576583542035,1.119677883119932,-7.2618088206561975,6.112463248119154,-6.314131131867164,4.124527281931862,3.0344811715855755,-6.565189507018855,-1.2075586750240905,-4.17321679543846,-3.0544130441781583,-3.5096132414796677,-2.072116594247715,-7.8962914783055975,7.808538779456709,-5.60081430008897,-7.665495631929245,0.16293344255232303,-5.925789343045123,-3.987739309318423,3.690392723307773,-7.972188594902134,-6.68690647420925,0.11258270956912142,-8.010195267838007,3.8845221321082066,3.905001329080782,2.8206068691073605,6.534547586114421,-6.949343426349106,-3.800924173209472,5.369239681019197,-5.554377058518996,-7.6057950389312285
2,-8.007717093033012,-8.012074549924641,-1.5398060689417878,1.347886563733716,4.305800857707921,7.114080354798428,3.7643049682298884,7.993999020448475,-7.960960169866414,-2.466367566210467,1.9615696338231476,-6.393055469220915,0.5030983126055268,-2.0865244461746,0.2608506835295952,-0.09350620452259592,6.060532354604092,-3.055629709769809,-3.478166746127995,2.6835144265357327,5.227638092757886,-7.908539214685881,-5.236054799011247,-7.92709763907061,-6.435755962769745,-4.634398600201184,0.17003123913186258,5.986417075404924,-4.058965352636516,-3.8749597400309352,-3.9421356055059933,6.435706122664975,-0.11083797712585237,1.413603000365264,-3.2875523407864176,3.5548058444700055,-7.039497004759493,-1.2253380168358174,-0.1741093015816464,6.2704024068013275,2.335741884540541,2.8884351711111176,3.270167164502016,-7.926885547660357,-5.693189299195099,4.750262392245208,-0.22471491744926636,4.149403296521797,-6.772469013097357,-3.778716417968869,4.34407548618011,5.388454996855426,2.6003836052946454,2.0328005714084436,6.574254525598022,-7.948343256490596,-0.261826684467362,-1.4772811233386918,-6.721074474511173,4.538230196514849,7.452055964097124,4.693457461976338,1.4468807578747702,0.9538141050556836,5.253424240173849,-2.0879061385456903,-7.372960140432102,-5.826585449196491,1.6394810970704905,-8.014886718274981,-0.42185749113107573,-1.0447224673292914,-8.012664346765947,-7.933034341350794,1.3593713495325297,1.701169210582139,7.562398989208392,-7.57202037642325,-2.790424828342827,-5.714181477041601,1.2137284602925633,5.677066710817202,-4.513925424170594,4.89778600866952,0.6308275135775876,-1.2172617286677867,-5.22577872031013,-8.010205502006308,1.5773751952956019,5.89900375056788,-3.0970304935204913,6.663201430556686,3.5874731799826325,4.3600112610302535,-1.666223191670959,5.253901579579816,-0.5259566107999394,-4.926916980595893,-0.9989634892592147,3.025597882489148,-6.5641655988517424,-4.648614464534701,-4.768983967367126,-8.005728347151894,-5.620957906207354,-6.307907262401235,-8.003285214308399,5.256457355910587,-1.009687928014883,6.818946906568485,3.51683387287329,-6.859992590096802,-2.5239985686688904,-0.5455195135185615,6.086521408974937,-6.3019742879418645,-1.6964202278905598,-4.4792104037619245,-0.8452205757944755,0.681467028857254,4.90950448526182,-5.028578359983095,-8.018152918011989,2.0322478378411777,-5.450780457884905
3,-3.038978949614197,-8.01232180522911,-0.8899638148522908,1.18076983840764,3.9794598811019943,-0.1595192782627901,-7.536609865923863,-2.6018581676296653,4.616059537320011,-1.6327528091853907,-6.205637272574643,-7.9035745053804725,-1.0154216997922259,4.98022304431451,1.6129566909954711,-0.7118622605188902,-4.375314715162675,-1.990104778249488,-0.2186522800100601,4.879608521682987,-0.4544711486167059,-7.455826959717987,7.901561618068458,-6.243671429443058,6.043231798244342,-7.923046309648326,-1.2782557530010008,-7.45916262601915,-1.7587870813891362,-2.9531588999653375,-4.830437452277332,6.684977247369231,-0.49985220610176817,-6.3928310574112,-7.8554513392141505,-6.3362956161017285,-3.421802021513857,-1.9113403400254358,-7.464101010245537,5.7863973942643,1.893235459999603,-7.516503755540162,-3.130965075729412,5.426880601242296,0.11944734326764994,7.115818765473678,2.331244093417795,-6.153571795146512,2.1363109624320957,3.3018315736794395,5.128446122293555,2.048776881113806,-4.042657411541223,1.588344148188088,6.623904444142855,-5.589795774174014,0.8108321353232011,-0.3493573018015663,5.177842213826603,-2.04746900999299,-2.0916156941233464,3.1646313247316096,0.1502445994995872,-5.104099167890261,-1.1498794174107003,-7.7602419583280255,-6.889939150968079,7.95584150919848,7.698068051697682,-8.011978051812278,7.030451884215104,7.991929581062571,-8.01153990531595,-1.3463641940455555,-3.6023657123083157,4.731288173948613,-0.9937643556083358,2.323458332988409,-1.8117313272603628,-0.0004926565571612487,-8.01944781308217,-6.857057852688683,-4.568079175886995,7.364318519091897,-3.4511080020909546,5.63130303644898,-0.8033825916843125,-8.00046911011426,4.779998670286279,-7.9584842919624155,4.9085306832716995,1.8170533513627471,-6.720114196462328,-4.443151626439411,-7.701288886661226,-0.6528539256094259,3.067593145442149,3.162333688102848,4.473790890537387,-0.4968177072697646,-3.4447807209790806,6.567057609835855,1.9619643282715447,-8.009591817991206,-5.431311887346124,-1.9812067572097343,-8.018714083722202,-7.653706534592963,6.729530147155801,7.533009307453593,5.094106162022706,-2.2938177887367046,3.4912467287339646,-0.28795432960088085,-4.26153464124533,-5.759218990454938,-1.5510860163914102,0.11084744294563399,0.5761782333147067,-5.742044974527065,-3.9117093056914527,-7.031569518745318,-8.001852422591037,-2.54558025495448,-7.924918188864591
4,-1.044814290104718,-6.239959486263007,-2.457670381525256,-7.235630587496406,2.7711818448843766,-3.9551497123509876,7.4875138215697365,7.717406476251204,-4.658312287069135,-3.9433715287788758,5.6884518199059055,3.0943077430677945,0.19331082570278824,3.997876579997822,-3.906882323426766,0.4191636844017833,-0.05960483019737417,-4.55122522158543,-5.506427586577427,-7.9881875017654895,-6.8769317467738365,-0.05812213468909999,0.783169612870404,1.382752065309775,-6.590293469420981,-7.984535249681985,7.906271994056155,-6.228729287980718,2.1364749751913665,1.4742518688899038,0.01495715032310466,-3.8362500094307492,-7.440070618561622,2.0856647792138094,-6.5269872036758905,4.788359543090029,-4.068802262321119,-0.5393745875419063,-5.466211404435704,7.676286490508062,-1.9928461767084862,-2.708661547039618,8.009521300939564,-7.6925604953308895,-1.4534902095522053,7.936237861840482,3.142336069760742,5.895017747921958,5.592040108234791,-1.2081058520877423,-1.2739661106227358,-2.167442992811539,7.147427436984511,-6.318588585510286,-4.557047493007296,-8.017833287465987,6.495980994523288,-3.758080456321524,2.6488958093133625,7.702820576039935,2.5988756086406277,-3.1872256691721526,5.820337065112174,7.9967188672261,-1.8639259414661087,4.533504777505448,2.6065690890708266,7.739190466775009,-7.758738029260847,-7.96075487368557,-1.2162798393117686,-6.452980358857701,-7.977509608212703,1.917375892404621,7.941136432971167,-8.0153132226222,-0.16834335443571838,-7.451521115596185,-7.25793646278747,-0.8371974723856379,-2.881214224078157,7.967105764188952,7.989442471841496,1.644072389713715,-7.579637874565956,-4.170692274970041,-0.3659407505348704,-8.010735009840351,6.01046853271686,1.491537820317344,-1.958446573110591,-4.280163194505952,-7.429325464712916,1.210755242221051,5.744662167745885,-3.8740306100824764,3.9641163570315996,0.739808579582359,-3.6854025348130772,0.9276413431169956,0.3102711710010482,-1.1395586993326332,3.2422075313573355,-7.996225592733076,4.101450035165886,5.552202441597,-7.994152303371253,5.571247418446239,-2.7388481573487002,-4.766871835302531,0.011244693355843438,-1.9283067109518626,-2.14958679851692,-7.552118973104214,4.755962534702325,2.0599305686298655,-4.553857091494077,4.104678966875605,5.811814281374582,3.3874666666658264,6.137752035754774,5.802961102076864,-7.948248912747591,-3.3581835570939784,-5.458987449197591
5,-7.56172442951884,-1.0858814338915612,-7.637401507188743,5.601137759141068,-4.301934960493275,2.8012546448494877,-6.173216326617169,-1.5906878526834298,4.5363627890553975,7.19238638453216,4.375212491818747,5.66124405040909,3.10374478263296,1.3612399116280542,1.2028843204120676,-1.1183595136294948,-2.8839856375550372,6.597532631610128,0.6439830558619395,4.9120989417422365,5.924528293868891,1.4109630608177364,-1.0133783012422912,-0.706766918283637,-0.6642312496100065,4.824886001412642,3.7601433340793697,1.2038746511693632,7.877982679223749,-6.379759598772212,-5.952990785949535,5.425270554616366,-3.356240291002942,2.5233600954994535,-2.6002019126536435,-4.724714965005767,-2.439600381296719,3.9556297727393717,-7.465753459103055,-7.94521805103923,7.657079480634739,-5.444332332648589,6.831797978717802,-5.039214855510771,-7.407878800654968,7.991967395828919,-6.711277719286429,-3.5613305878164248,-7.9954598636257295,-7.913605082604896,-7.906054108267327,-0.7376429760691856,-7.1876480127094595,3.465002988289799,-6.249547738336609,-4.801476299134439,-1.67309677592268,4.4377251889499,2.2051180499291316,6.208585046074887,6.784958054876711,-6.104060560984198,1.6299374817817327,7.99980478093476,0.5676557728839642,-1.1050601865821552,-2.428739072353413,0.8731983611556386,3.0679363729553955,-7.936470691830307,0.5780740829061893,-4.517688157988914,-4.742794901010288,-3.7894243277149298,5.983322524356954,6.759869208396495,-7.834188493461378,-7.8700463585115195,-3.3258712083195974,-7.123511472068023,-3.3593044315059255,7.069570179015976,1.0961553611494819,0.22554527686089187,-6.736817882143447,6.441793237000832,-5.0181330887243,-6.027589114105635,-0.5346219285240448,-2.38750566779334,3.33965701715561,0.6398998129666453,-1.1242983623080054,4.878103904628114,2.3244418329033554,-2.1461794777059957,4.106400557142259,5.911724055153279,-4.839912408615147,-3.058064856586057,1.3615930374685234,-0.23988736443144276,7.993590980425935,-7.958799331079099,-7.901317335617277,2.2950578590420374,-2.6145823311029446,-7.851436874805254,-2.676177582386003,6.821479993195702,4.843983926491806,-4.297886570391118,-2.688299687734357,5.8319369796197655,-1.8459229813187363,-8.009196446058962,-1.3469396712583745,1.627253939834223,-2.523760244614327,3.4105767608706223,1.6007788056424985,5.637749916162198,-7.768853696786399,-0.725430118373275,-3.1707758062186167
6,-0.7164970444096691,-8.018703146052532,-8.011093053126581,-3.9210223540026545,-8.014097461836174,5.6947966436325395,-5.447253171243254,-0.254453240290049,0.7544945666419569,3.0380307582574986,-0.7199352204565788,-3.7290184984904453,-7.058652780194578,5.471906309016081,6.295181182550076,4.294753388172724,-6.988670475683152,-7.930553623791196,7.058184591504984,-7.992729034496287,-2.2384232297310382,-2.1584801176613353,3.2121986482118845,7.886291487480721,-6.4271608811689305,7.652499947513365,-7.9891405597009335,7.848979262789635,7.707247431171419,7.047351510003934,-0.5203213686163393,5.041651485675645,-1.3611208271270447,7.845626760617979,1.3770116163141388,-7.9618834723943905,-0.6828544936813632,-3.2897620135215604,3.849185222453089,-7.55989909745286,-3.155163561582315,0.14944022559558306,7.70140146667171,3.2732801505258227,6.801189675762592,0.7544888702677678,-6.189568623436177,-3.6852063820200343,-1.7250670754046633,-8.019568014418045,-2.773778725110197,7.681006784158365,-0.9947499514153861,-3.6113976494851245,-3.2289101478373423,-8.008926994877019,-0.33585679270637847,-5.588922472186422,-6.754774523583979,7.702977716601653,4.928230095798936,1.5777842699434448,-1.4845255130717714,4.65218242921906,0.23472961520777427,-5.1107109605638685,3.3188525221304954,2.379801211120242,-1.520851365134458,-8.017829235257604,0.8093862867164408,-0.09440875259010648,-5.829015138131231,7.892805698527599,4.394131336708099,2.6784035375158033,-6.4410901100877105,-1.0688686535986136,-3.750660144053583,7.420476727064136,-3.4077681866593563,-5.098645530763301,6.820091946504387,-2.7984376949814234,-7.111155331984895,-6.463573978987652,4.406793422255666,-8.008687778276256,-3.251975938068263,-1.188742642710847,2.445979831615847,-3.9669076653207904,-1.4946917152749233,-7.625919537077452,7.2225824753985055,5.5737399958143055,-2.219811110409017,3.9838447475412213,7.872024458140238,-5.6960108418817725,5.233115527086499,2.4969739803012363,-7.822286449825651,-8.008241741456928,-0.6353302396928585,2.61052328674992,-8.008472994901478,7.208144422948294,-8.005624353563688,4.79927522620255,-7.222211531891471,-7.971457551232234,7.865966247787574,5.537860705841922,-4.381440609130806,5.267178074552612,-8.010514513699112,-2.4507042632704565,3.0161117407806413,2.344318720548749,-5.89823284835888,4.5349014962428065,-3.6339751706224668,0.06641942086326402,-1.4927220693782743
7,7.493569252413375,-7.968229806803862,-5.31272293614507,-3.681142954800942,-5.191268303288146,-3.1260713889411047,0.552836300312773,-5.782528092956573,-1.1464837943820656,3.075908836681192,0.1826448095562263,7.3852572568916734,3.6072487205328727,-3.4640196115607296,0.5786762457120904,-0.3696306583075348,-5.701862253045936,3.316130537694589,-1.240459894195551,-7.319446781965961,-1.9925391514451913,-3.3104379763885614,-2.458553797710537,2.203843180062217,4.122579191416355,-2.203200596993967,-7.942193299337145,1.367394095946253,7.814250020113233,-4.913829139796359,-5.5169932410099065,-3.1557014969525596,2.426131856418935,-0.8184876900735385,-3.3832256195281563,-4.9349347780979755,0.2443504508230685,-4.866177419396566,1.5401361194309988,-7.030521649683859,-6.3248018003063695,7.69608633330664,6.141252006009372,2.5506655961072013,-2.131692532029522,-1.6373586656213033,-3.1931637143845575,6.607575673573606,0.6963401618226367,5.147316536477451,-7.0379462964973305,1.1559505793839158,4.386844692126719,-1.681668250767597,2.1326562188469667,-4.351796625499515,-6.003327660326606,1.4630360418152755,-1.5796841208394454,7.686169254370997,4.6116295578847115,6.502503842539602,-1.8614916750926866,7.913931597301779,-8.01838314598022,2.6553351527443905,-3.767215825947302,-2.955314268913508,7.8972597051299385,-7.9947393827006294,-1.1353895602267754,6.114378034967155,-7.94595664688552,-7.94056939025141,0.20572882084704922,0.15409080086731444,0.4688456969554369,-0.547944503922281,-5.815382542035616,-0.11788571782237983,-5.31699371012901,3.829181606109931,3.8599284357275474,7.817294702281005,-3.9949379528766773,2.2286972646704504,-1.776036521805945,-8.01108850957146,-2.4631748847122825,4.683773974370514,-1.4208660063077974,7.162880414312497,-3.9775448550167685,-4.066949067194228,2.5442618282833194,-2.03618316919019,5.551540597420992,4.178876978852754,7.882551288290179,-7.263407191181404,-7.743120242739245,-5.975987059984581,-4.585326239914386,-8.000184626560436,-3.7660353002952633,-4.055840275950462,-8.016733851279067,-7.2306370015082795,-0.9621623854604622,7.909283015315509,3.5334215358410734,-6.368888014945794,7.873022314187374,2.6313650157894095,5.19295224732007,-5.447206978745681,-0.9019231299420539,-2.3227013779339853,7.896355697684601,-3.16841297461362,1.395358772902311,6.709185817179614,-7.9888269705013,5.9662563871165,0.7615380494141862
8,1.068502326427085,-8.016860699775313,3.9467985180772396,-5.125018321062742,2.9264358598969977,2.224997418749691,-5.998696839106671,7.5447658499571215,1.642923858813059,6.900273890447185,6.446401136265404,1.871113782533067,-2.4835581950465535,4.174325603758479,-7.009580135885363,6.56836905987724,-0.22430576376063627,-5.208224616416402,-3.0596768222515927,-3.766695625962155,-4.732176931936674,-7.9677187550132,1.7520567841571273,4.757156474195745,-7.950485609015919,-6.860337198371331,-8.002225474882163,4.820878887097752,-0.21313669373659855,1.2061858890178572,-4.143975209012183,1.791700325876885,0.140890243838181,3.552129530418475,-5.035860606432042,-0.4029512758151199,-3.04591425374735,4.6665158761654695,-7.144830870440945,2.0807522809698042,3.429458832240575,-1.6991742878609313,-5.198861008394042,1.7834385870262768,-1.9216807608945086,4.332294479083224,6.652888218947838,-1.55582971115847,-4.380113639496657,-3.1826013616604896,-2.349311691828927,6.503795355262987,7.36884390817516,0.6558646969763501,3.4701660281995435,-7.70240809935246,0.8996641522930151,1.4441117944490678,-2.224322983965507,1.4732106909123375,2.9152185701233155,5.210274194629161,-4.421154829237041,1.9543472554477725,-6.953123798889347,6.407001145423589,-1.0409896520062754,4.470007333108391,-4.2377150938938,-7.954157145614127,7.620582048801964,6.614229859573043,-8.01986655023571,4.766617304531653,-1.9190457212681422,7.257056246975653,-5.943925886366659,-6.674869494810938,-6.579963280028554,2.6565885481567157,-7.313877920969874,-6.6073832595103035,3.918577217864916,-4.857103288665044,1.2669575639521256,4.848708797715439,0.1836177690152333,-8.013293753826636,-1.1094816720142244,-8.013749812627404,-2.094023342554453,2.426834355734586,4.469380941962116,3.0267461195064094,-5.701248843072975,7.002740397686399,-7.4469693193304,-5.215082115906549,7.6026518048374445,-7.506826958369588,-1.6490237365838762,-1.0288067451353715,-3.071367659847093,-8.015318581036597,-7.828149798584985,6.33793571630723,-8.012395849092805,-6.963494368267597,-7.736054791714494,3.444751629137574,-6.836886560932292,-2.7469306738926687,0.2543364594530625,-3.959215491306418,-3.058619463781089,-0.014232257019385717,-7.000046711947052,-4.859714009691608,-6.411504422069038,7.218231403030172,1.7380579937721397,3.9467282051448276,-7.968071490420254,6.293252372399593,4.856527000609006
9,-7.962465257577193,5.098099760931016,-1.6947091269344163,-4.707929260119613,-7.56614393468239,-3.4303994287092685,2.906254239327291,7.891655074796896,0.6587089731403548,4.395792910927575,-3.491555856088416,5.365465600539398,-5.477942324773704,2.1717788188441958,-4.866584640518347,-7.283133774923396,-2.8024216298983937,-7.722722669512062,1.119096196233091,-0.8687844662305828,1.3787538332034668,-8.006741432895456,-4.573676461638253,-7.4674205710494,-7.284970434653198,1.9027232413432356,-7.981362951989627,3.947268345888246,3.984070336099881,-7.184266934992518,-0.4230836442827103,-0.1121806429482195,1.9536726903205843,7.920172394144554,7.940152275153528,7.879970778543761,-7.899470562154516,-3.5868045132689756,3.5335715372767904,5.2108248343833985,1.6130408829463538,-2.29899936058176,-2.6051635602043044,-5.398749114402094,-7.2909409094064195,-3.5889833626572787,5.960145388453634,-2.131753797426107,4.256010511656365,-7.186826750645221,7.736369021362564,3.8187980194484057,3.275089242167157,-8.014306721168579,2.017785322854847,-3.739308674242619,-2.581025021035643,3.6681151713472353,5.240898529819914,-7.984561983400762,-7.670795056660964,5.139202982603869,-6.082314486953958,-2.704039261868297,-1.4569553262849164,2.3652401341164797,-7.4784316133468725,1.4236449128318829,1.3597884067524024,7.735416650283806,1.609447953050477,5.258127925901721,3.4605013551826143,-7.786778580432193,-0.4276178606464609,5.322948170754959,-0.6408747235897544,-4.328841303904236,-1.2881951273623606,2.7496326999560665,1.1852649973476737,5.584636139127973,2.3198935138657535,4.175177061397855,-3.5347958059347118,-3.55020725880222,-7.127922420187721,-4.75982820591795,-4.198469821255161,-7.970350405397683,-5.720503157121852,-3.5993867520431215,3.7451674789021787,-2.5871510713417596,-2.668493449022646,-3.0351171914853126,-3.7812644180037824,-5.814602062358661,-2.598395634417838,-5.915819454789526,-1.3876852908969504,6.852903974128491,-8.006427030222763,-4.103283451117577,-7.3153833676595825,-4.929275477615489,-8.004380030279172,-2.833549688370157,6.465850185111594,-4.766327631661619,-5.250702701054701,-1.7259656941456423,7.521084589143138,-5.689184665075102,6.270488657091233,-2.1611006303616476,7.97038417559571,7.177755656924925,-3.9612989090810933,5.087106055508759,-4.365637605428104,5.876841097320279,7.561215164773406,-5.349368850709363,2.636318160024302
