,0,1,2,3,4,5,6,7,8,9,10,11,12,13,14,15,16,17,18,19,20,21,22,23,24,25,26,27,28,29,30,31,32,33,34,35,36,37,38,39,40,41,42,43,44,45,46,47,48,49,50,51,52,53,54,55,56,57,58,59,60,61,62,63,64,65,66,67,68,69,70,71,72,73,74,75,76,77,78,79,80,81,82,83,84,85,86,87,88,89,90,91,92,93,94,95,96,97,98,99,100,101,102,103,104,105,106,107,108,109,110,111,112,113,114,115,116,117,118,119,120,121,122,123,124
0,7.833060006829154,-8.017417937120364,7.8411312361633065,-8.000771452395488,7.516779726724396,7.314846037395574,2.5978553618539912,7.614538816684695,-7.9534459628554774,-7.517718621648607,-5.240203557634146,0.06657966267979809,4.136264418479355,-4.4571537048769585,2.6511526636511427,-4.0871948427589855,6.546670804868869,2.6470654555205724,-5.954758945042965,-7.962921486316073,7.639572387783018,-8.005218738784333,6.723688503623737,4.43542463011056,-3.624735353373852,-6.420108171006039,7.962703284915021,-8.009392212861194,-7.824512443354047,-1.6957562066110403,-7.961232247981291,-7.725073775083072,6.8538477471471975,-7.709271943591931,4.031320062653219,7.934121824224132,-0.12304210301748064,-7.872347134177463,-7.955211247315836,-3.5929295404045405,-7.098386560555179,-8.018810640929745,-6.5198530099661145,-0.7093885624143006,-7.716322894846952,1.933224223540261,-8.014064970000517,4.154367756674805,-7.944844349385052,-4.044624773292033,7.9806623366133,-1.7300627746475126,4.09239011941094,-7.463007977088267,-7.532523921542719,-8.01247725281571,2.876726359018237,-3.7104680102474017,3.217833160633081,7.786713426033749,7.295511946573184,5.738187779128469,3.0507444042283045,7.854569576009251,7.9568622236848405,7.987086367299153,-7.9838925500089974,-7.952642434446217,7.986577547271445,-8.007738636538967,-3.34915652096884,-7.904029706000369,-7.811730534008657,-8.00405197957719,7.825981796514654,1.0540663119794278,2.0031210633552927,6.652529478536259,2.053552808804593,-7.597650555831839,7.960724315834296,-0.08601348438464948,-8.00570456501933,-0.6649107272314083,-1.7612575398925134,-8.007023118186263,8.00236673168403,-8.019752701308848,-2.9074821402409086,-7.85953779494816,-0.9831544833253231,-8.002740185144624,-7.07078406702929,-4.215076058179056,1.28691490918551,1.6886370230312036,6.527471664956225,-3.7164107655046426,7.485906153068932,-7.6701864543818115,-7.8111267693893325,-6.874865808994613,-0.729524668930182,-8.005301373840917,7.0471875278849465,8.017525434669873,-8.010749282436247,-7.95325357595037,-2.087960706237744,-4.453701876643624,-2.164700414858469,-7.89659680028659,-3.3074155218044567,3.613729974705432,0.11970877764534701,8.012727761655482,-2.3122869876798893,-5.537852938541002,-5.284742382981535,-4.844167000759418,-1.9743207700457575,-0.08008742157582383,-7.894653767412823,2.1778812194675474,7.523586968693511
1,-7.981941770576647,6.641519781041219,-7.891400938407985,7.989534836225857,7.993594331766195,-2.9346014420176942,3.829047357739121,-7.955868950457026,7.857761189944993,0.6553313801967473,6.949852440985845,7.319282844340686,0.08255968331044627,-3.0272491088220495,-7.427005655551399,6.215327642218186,2.754583042895595,7.986897564111203,-3.0302341812524123,7.993503182383064,3.7501420867636934,-7.826968014014534,0.6310513850346231,7.892513884505865,7.049998865309503,-7.950067083169664,-7.961830190804115,-7.155841652984945,-7.87477320176518,-8.012390767308087,3.8417006334719765,-0.2942426004736003,-8.006282848582336,-8.019051654844262,4.581852944041643,-7.891702814301889,-0.8835469185458251,0.4720841162887033,2.1302881286687416,4.7844537527900926,7.471711923790327,-1.4708443482624938,-7.79590740271105,1.5932419364388224,6.952844023278844,-7.978447133860508,-4.255374183308958,-6.215953631609716,7.998001138245558,8.003885942086553,-7.913755660378854,2.262851673291525,-2.8540627012198563,8.00223666713442,8.006318516677132,-7.983418627388408,-3.64313572582744,-2.032999515316316,5.817930724823958,7.474345168821836,-7.83662728907618,-7.806718460968572,-6.495367570301488,-3.2599876161215926,7.929986555307938,-7.1365736593007885,6.34224463551302,-7.990975081840885,7.919200533445078,7.677888931626335,-6.80010611700836,-7.945593813621846,1.9185046333746931,-7.850813379637126,-7.803132299157198,-3.729940393642603,-7.407542094549024,-2.8803298472702323,-1.164155957710129,-2.7150194368765574,-4.814886566804556,-6.372957787245557,-0.9448160242414698,-1.3570539331181148,7.705768450023331,-7.894458827447151,-7.937272505437161,8.005096267751098,-6.96995405601332,7.896167712590858,2.840507913959423,-7.8845576583542005,1.119677883119932,-7.2618088206561975,4.932463248119179,-6.314131131867164,3.6045272819318646,3.0344811715855755,-7.885189507018827,-1.2075586750240905,-4.17321679543846,-3.0544130441781583,7.990386758520254,-3.212116594247716,-7.956291478305596,8.008538779456705,-1.7608143000890024,-7.665495631929245,-6.657066557447624,-5.925789343045123,-3.987739309318423,7.97039272330769,-7.872188594902136,-6.68690647420925,0.11258270956912142,-7.830195267838011,7.8645221321081245,2.885001329080781,-5.659393130892609,6.534547586114421,-6.949343426349106,-3.800924173209472,7.789239681019145,-5.554377058518996,-8.00579503893122
2,-7.987717093033012,-7.952074549924642,7.000193931058153,-2.6121134362662866,-6.334199142292029,7.114080354798428,3.7643049682298884,7.733999020448481,-7.660960169866421,-2.466367566210467,1.9615696338231476,-6.393055469220915,0.5030983126055268,-2.0865244461746,0.2608506835295952,-2.6335062045225976,6.060532354604092,7.804370290230116,-3.478166746127995,-8.016485573464188,4.647638092757898,-7.908539214685881,-8.016054799011188,-7.867097639070611,-6.435755962769745,1.9256013997988073,7.850031239131784,-7.953582924594956,1.4010346473634865,-8.01495974003085,-7.982135605505908,6.435706122664975,-8.010837977125771,-7.74639699963466,-3.2875523407864176,7.854805844469924,-7.039497004759493,4.694661983164171,-0.1741093015816464,6.2704024068013275,-7.784258115459384,-0.591564828888885,6.390167164501966,-7.926885547660357,-5.693189299195099,-7.7297376077547035,-8.004714917449185,4.149403296521797,-7.932469013097332,-7.958716417968786,7.264075486180047,5.408454996855426,2.6003836052946454,-7.947199428591476,-6.285745474401881,-7.968343256490597,-0.261826684467362,-1.4772811233386918,-6.721074474511173,7.738230196514781,7.992055964097112,7.933457461976269,0.2868807578747692,7.833814105055605,7.813424240173795,7.292093861454244,-7.772960140432094,-8.006585449196445,7.8794810970704106,-8.014886718274981,3.438142508868927,-8.00472246732921,-7.992664346765947,-8.013034341350792,7.999371349532447,-3.558830789417865,7.64239898920839,-7.57202037642325,-2.790424828342827,-6.114181477041592,2.913728460292565,5.757066710817201,-2.153925424170603,4.89778600866952,0.6308275135775876,-7.797261728667708,7.874221279689769,-8.010205502006308,1.5773751952956019,7.919003750567837,-2.1170304935204904,-7.996798569443179,3.5874731799826325,4.3600112610302535,-5.766223191670923,5.253901579579816,2.8740433892000623,-4.926916980595893,5.181036510740763,3.025597882489148,-6.5641655988517424,-4.628614464534701,-7.828983967367062,-8.005728347151894,7.779042093792537,-7.207907262401216,-8.003285214308399,5.256457355910587,-7.929687928014802,6.818946906568485,3.51683387287329,-7.39999259009679,-8.003998568668807,-0.5455195135185615,5.806521408974943,-8.00197428794183,-6.656420227890505,-7.679210403761856,7.374779424205457,0.681467028857254,4.90950448526182,-5.008578359983096,-8.018152918011989,2.0322478378411777,-8.01078045788485
3,-8.018978949614112,-8.01232180522911,6.990036185147649,-2.5992301615923625,3.799459881101994,-0.1595192782627901,-7.536609865923863,-8.001858167629582,7.796059537319943,-1.6327528091853907,-6.205637272574643,-7.9035745053804725,-1.0154216997922259,4.98022304431451,1.6129566909954711,0.7281377394811105,-4.375314715162675,-7.710104778249411,-0.2186522800100601,7.999608521682921,-1.0144711486167064,-8.015826959717975,7.661561618068463,-8.00367142944302,6.043231798244342,-8.003046309648324,7.961744246998919,-8.019162626019138,-7.958787081389055,6.646841100034611,-8.010437452277264,6.684977247369231,-7.999852206101686,1.9471689425887533,-7.8554513392141505,-7.756295616101699,-3.421802021513857,2.8686596599745675,-7.464101010245537,5.7863973942643,7.893235459999522,-7.436503755540164,-7.970965075729328,5.446880601242295,0.11944734326764994,5.315818765473717,8.011244093417712,-6.153571795146512,-7.983689037567824,7.861831573679359,-7.751553877706348,2.048776881113806,-4.042657411541223,7.828344148188009,7.543904444142836,-8.009795774173963,0.8108321353232011,-0.3493573018015663,5.177842213826603,-7.987469009992907,-8.011615694123263,0.42463132473160725,0.21024459949958718,-7.864099167890203,-8.009879417410618,-7.880241958328023,-7.78993915096806,7.97584150919848,5.758068051697723,-8.011978051812278,7.67045188421509,7.991929581062571,-7.99153990531595,4.85363580595443,-8.002365712308231,2.451288173948627,-2.253764355608337,2.323458332988409,-1.8117313272603628,-1.6004926565571622,-8.01944781308217,-7.217057852688676,-7.928079175886923,7.364318519091897,-3.4511080020909546,7.811303036448933,-8.00338259168423,-8.00046911011426,4.779998670286279,-5.7984842919624615,7.728530683271639,7.917053351362666,-6.720114196462328,-4.443151626439411,-7.961288886661221,-0.6528539256094259,7.747593145442071,3.162333688102848,-7.826209109462528,-0.4968177072697646,-3.4447807209790806,6.567057609835855,0.4419643282715434,-8.009591817991206,-4.471311887346144,-2.5012067572097347,-8.018714083722202,-7.653706534592963,3.8495301471558587,7.533009307453593,5.094106162022706,7.906182211263218,7.8112467287338845,-0.28795432960088085,-4.26153464124533,-7.979218990454891,4.18891398360859,-1.4091525570543668,-7.903821766685214,-5.742044974527065,-3.9117093056914527,-7.031569518745318,-7.86185242259104,-2.54558025495448,-7.864918188864593
4,3.735185709895285,-7.899959486262972,-7.757670381525179,-7.655630587496397,7.531181844884303,-3.9551497123509876,7.4875138215697365,7.337406476251212,-7.298312287069079,-3.9433715287788758,5.6884518199059055,3.0943077430677945,0.19331082570278824,3.997876579997822,-3.906882323426766,4.879163684401767,-0.05960483019737417,-1.3512252215854388,-5.506427586577427,-7.94818750176549,-7.056931746773833,7.301877865310834,1.983169612870405,-7.857247934690147,-6.590293469420981,-7.784535249681989,7.926271994056155,-7.6087292879806885,-7.723525024808559,-8.005748131110016,8.014957150323022,-3.8362500094307492,-8.00007061856161,-2.4543352207861933,-6.5269872036758905,7.928359543089963,-4.068802262321119,-5.6993745875418735,-5.466211404435704,7.676286490508062,-7.492846176708413,-2.4886615470396176,7.889521300939567,-7.6925604953308895,-1.4534902095522053,7.876237861840483,-7.997663930239179,5.895017747921958,-1.5279598917651798,-7.648105852087667,5.926033889377228,-2.167442992811539,7.147427436984511,-7.558588585510259,-5.157047493007283,-8.017833287465987,6.495980994523288,-3.758080456321524,2.6488958093133625,8.002820576039928,7.71887560864055,-5.727225669172117,5.7403370651121755,7.9967188672261,1.1560740585338933,7.813504777505379,-7.993430910929094,1.1991904667750855,-5.898738029260887,-7.96075487368557,-0.3962798393117679,-7.732980358857674,-7.797509608212707,7.6773758924045445,7.641136432971173,-7.995313222622201,6.231656645564238,-7.451521115596185,-7.25793646278747,-1.3371974723856384,7.998785775921764,8.007105764188951,7.989442471841496,1.644072389713715,-7.579637874565956,-7.470692274969972,7.974059249465048,-8.010735009840351,6.01046853271686,-3.5084621796826596,-7.738446573110513,-7.980163194505874,-7.429325464712916,1.210755242221051,0.944662167745919,-3.8740306100824764,7.564116357031525,0.739808579582359,7.774597465186849,0.9276413431169956,0.3102711710010482,-1.0795586993326332,7.842207531357255,-8.016225592733075,1.8214500351658862,8.012202441596948,-8.014152303371253,5.571247418446239,-2.9988481573487005,-4.766871835302531,0.011244693355843438,-7.888306710951781,-7.1495867985168555,-7.552118973104214,4.915962534702322,-8.000069431370054,-7.933857091494005,4.724678966875592,5.551814281374588,3.3874666666658264,6.137752035754774,5.802961102076864,-7.96824891274759,-3.3581835570939784,1.1810125508023825
5,-7.901724429518833,7.414118566108371,-7.917401507188737,2.5411377591411006,3.638065039506724,2.8012546448494877,-6.173216326617169,-7.990687852683347,7.456362789055335,7.19238638453216,4.375212491818747,5.66124405040909,3.10374478263296,1.3612399116280542,1.2028843204120676,-5.738359513629461,-2.8839856375550372,8.017532631610099,0.6439830558619395,5.23209894174223,8.004528293868846,7.71096306081766,-6.013378301242251,-7.966766918283556,-0.6642312496100065,-2.3551139985873455,7.660143334079292,7.583874651169289,7.157982679223764,-8.019759598772177,-6.072990785949532,5.425270554616366,-8.016240291002857,7.7033600954993755,-2.6002019126536435,-7.684714965005705,-2.439600381296719,-7.844370227260553,-7.465753459103055,-7.94521805103923,7.997079480634731,-2.7043323326486184,7.5517979787177865,-5.039214855510771,-7.407878800654968,8.011967395828918,-1.531277719286484,-3.5613305878164248,-7.97545986362573,-8.013605082604894,-7.866054108267328,-0.7376429760691856,-7.1876480127094595,-7.374997011710135,-4.049547738336656,8.018523700865465,-1.67309677592268,4.4377251889499,2.2051180499291316,3.768585046074934,7.984958054876685,-7.90406056098416,1.6299374817817327,8.01980478093476,-0.7923442271160364,-7.605060186582081,-8.008739072353329,-7.98680163884428,7.4679363729553225,-7.956470691830306,-3.641925917093814,-6.777688157988866,-5.302794901010276,7.6305756722849996,7.9633225243569115,7.1998692083964855,-7.874188493461377,-7.8700463585115195,-3.3258712083195974,-6.623511472068033,-7.919304431505843,8.009570179015956,-7.903844638850439,0.22554527686089187,-6.736817882143447,0.36179323700088084,7.981866911275601,-8.007589114105594,-0.5346219285240448,6.472494332206612,0.2596570171556074,-7.0001001870332935,-1.1242983623080054,4.878103904628114,2.7044418329033557,-2.1461794777059957,-7.173599442857677,5.911724055153279,-7.859912408615083,-3.058064856586057,1.3615930374685234,-0.23988736443144276,7.893590980425937,-7.998799331079098,-7.901317335617277,-0.6249421409579646,-8.014582331102861,-7.851436874805254,-7.476177582385931,6.821479993195702,4.843983926491806,-7.417886570391053,-7.728299687734278,5.8319369796197655,-1.8659229813187364,-8.009196446058962,7.813060328741548,-0.6527460601657785,-1.1437602446143251,3.4105767608706223,1.6007788056424985,5.637749916162198,-7.768853696786399,-0.725430118373275,-7.990775806218533
6,-8.016497044409586,-7.758703146052538,-8.011093053126581,-7.361022354002583,-7.914097461836176,5.6947966436325395,-5.447253171243254,-5.214453240290027,7.5144945666418845,3.0380307582574986,-0.7199352204565788,-3.7290184984904453,-7.058652780194578,5.471906309016081,6.295181182550076,3.3947533881727296,-6.988670475683152,-7.970553623791195,7.058184591504984,-8.012729034496287,-2.7384232297310387,7.8615198823385875,8.0121986482118,7.626291487480726,-6.4271608811689305,7.632499947513367,-8.009140559700933,7.768979262789637,7.867247431171416,8.007351510003915,-1.24032136861634,5.041651485675645,-7.961120827126964,7.925626760617977,1.3770116163141388,-8.00188347239439,-0.6828544936813632,6.210237986478398,3.849185222453089,-7.55989909745286,-7.955163561582232,-0.5705597744044172,7.741401466671709,3.2732801505258227,6.801189675762592,7.914488870267688,-5.709568623436187,-3.6852063820200343,-8.00506707540458,-8.019568014418045,-6.7537787251101395,7.681006784158365,-0.9947499514153861,-7.991397649485041,-8.008910147837257,-8.008926994877019,-0.33585679270637847,-5.588922472186422,-6.754774523583979,7.542977716601657,2.6282300957989544,3.8177842699434468,-1.4845255130717714,-2.327817570780931,-8.005270384792144,-8.010710960563808,-8.001147477869425,7.919801211120161,-8.000851365134375,-8.017829235257604,-8.010613713283478,4.525591247409885,-0.42901513813126657,7.9328056985275985,7.65413133670803,2.6584035375158033,-7.88109011008768,-1.0688686535986136,-3.750660144053583,7.540476727064133,-3.227768186659356,-5.658645530763289,8.000091946504362,-2.7984376949814234,-7.111155331984895,-6.143573978987659,-1.6132065777443294,-8.008687778276256,-3.251975938068263,-8.008742642710764,7.985979831615763,-7.646907665320713,-1.4946917152749233,-7.625919537077452,7.302582475398504,5.5737399958143055,-8.019811110408934,3.9838447475412213,7.832024458140239,-5.6960108418817725,5.233115527086499,2.4969739803012363,7.797713550174194,-8.008241741456928,-7.995330239692777,0.8105232867499184,-8.008472994901478,7.208144422948294,-8.005624353563688,4.79927522620255,-7.222211531891471,-8.011457551232233,7.945966247787572,5.537860705841922,-4.381440609130806,-5.532821925447334,-8.010514513699112,-5.070704263270435,7.9161117407805595,2.344318720548749,-5.89823284835888,4.5349014962428065,-7.953975170622384,0.06641942086326402,-7.932722069378194
7,7.973569252413364,-7.908229806803863,0.587277063854906,-0.7211429548009392,1.8287316967118334,-3.1260713889411047,0.552836300312773,-2.4225280929566098,-7.986483794381984,3.075908836681192,0.1826448095562263,7.3852572568916734,3.6072487205328727,-3.4640196115607296,0.5786762457120904,-1.0296306583075352,-5.701862253045936,7.73613053769451,-1.240459894195551,-7.999446781965947,-2.3325391514451916,-7.910437976388479,4.881446202289449,7.903843180062136,4.122579191416355,7.996799403005953,-7.582193299337153,-7.552605904053676,7.834250020113233,-3.433829139796378,-8.016993241009853,-3.1557014969525596,0.4461318564189334,-7.918487690073459,-3.3832256195281563,-7.794934778097915,0.2443504508230685,-7.9461774193965,1.5401361194309988,-7.030521649683859,-7.484801800306345,8.016086333306633,-0.4587479939905855,2.5506655961072013,-2.131692532029522,2.5826413343786996,-8.013163714384474,6.607575673573606,6.296340161822591,-6.752683463522472,-7.777946296497316,1.1559505793839158,4.386844692126719,6.2783317492323585,7.69265621884689,-8.011796625499437,-6.003327660326606,1.4630360418152755,-1.5796841208394454,7.506169254371001,7.911629557884641,7.822503842539573,-2.261491675092687,7.853931597301781,-7.99838314598022,4.715335152744377,-4.027215825947302,-5.975314268913467,8.017259705129936,-7.9947393827006294,1.5246104397732263,5.814378034967161,-7.94595664688552,-7.7205693902514145,3.4257288208470515,-7.805909199132607,-7.471154303044493,-0.547944503922281,-5.815382542035616,-0.5578857178223801,-8.016993710128952,3.909181606109931,7.899928435727466,7.817294702281005,-3.9949379528766773,2.6086972646704503,8.003963478193974,-8.01108850957146,-2.4631748847122825,-7.2162260256294095,-8.000866006307714,3.1428804143125633,-3.9775448550167685,-4.066949067194228,1.9642618282833189,-2.03618316919019,7.351540597420954,4.178876978852754,7.82255128829018,-7.263407191181404,-7.743120242739245,-5.915987059984582,-7.965326239914315,-8.000184626560436,5.853964699704704,-3.915840275950463,-8.016733851279067,-7.2306370015082795,-7.54216238546039,7.909283015315509,3.5334215358410734,1.2911119850541597,7.913022314187373,2.6313650157894095,4.9929522473200745,-7.887206978745629,-7.981923129941972,-1.6027013779339847,7.9763556976846,-3.16841297461362,1.395358772902311,6.709185817179614,-7.948826970501301,5.9662563871165,-1.3984619505858153
8,0.008502326427084324,-8.016860699775313,-7.893201481922684,-4.445018321062756,4.986435859896978,2.224997418749691,-5.998696839106671,3.7047658499571967,6.5429238588130065,6.900273890447185,6.446401136265404,1.871113782533067,-2.4835581950465535,4.174325603758479,-7.009580135885363,6.048369059877251,-0.22430576376063627,-7.9482246164163435,-3.0596768222515927,7.993304374037766,-4.45217693193668,-7.887718755013202,-1.527943215842875,4.397156474195753,-7.950485609015919,3.4396628016286135,-8.002225474882163,-0.6791211129022339,7.046863306263339,-1.233814110982144,-5.043975209012164,1.791700325876885,7.380890243838111,-7.767870469581451,-5.035860606432042,7.817048724184803,-3.04591425374735,1.6065158761654814,-7.144830870440945,2.0807522809698042,4.569458832240564,-1.9991742878609315,-5.478861008394036,1.7834385870262768,-1.9216807608945086,-0.14770552091677264,6.372888218947844,-1.55582971115847,-3.240113639496665,-1.9026013616604884,-3.449311691828928,6.503795355262987,7.36884390817516,7.935864696976269,4.110166028199542,-7.982408099352455,0.8996641522930151,1.4441117944490678,-2.224322983965507,7.713210690912261,-7.544781429876615,-0.9097258053708174,-4.421154829237041,-7.985652744552148,-8.013123798889325,-2.2329988545763646,5.479010347993697,8.010007333108316,-7.857715093893724,-7.9941571456141265,7.760582048801961,7.874229859573017,-7.99986655023571,7.926617304531586,-7.7990457212680635,7.337056246975651,-7.943925886366618,-6.674869494810938,-6.579963280028554,2.696588548156716,-8.01387792096986,-6.687383259510302,-1.6414227821350884,-4.857103288665044,1.2669575639521256,7.708708797715378,-7.996382230984684,-8.013293753826636,-1.1094816720142244,-7.9537498126274055,-3.3740233425544544,-5.613165644265385,4.469380941962116,3.0267461195064094,-5.741248843072974,7.002740397686399,-7.486969319330399,-5.215082115906549,7.782651804837441,-7.506826958369588,-1.6490237365838762,-1.0288067451353715,-7.871367659847012,-8.015318581036597,-8.00814979858498,1.4179357163072774,-8.012395849092805,-6.963494368267597,-7.796054791714493,3.444751629137574,-6.836886560932292,-7.8869306738925875,7.9743364594529815,-3.959215491306418,-3.038619463781089,-4.6342322570193755,-7.920046711947032,-6.419714009691575,-7.911504422069006,7.218231403030172,1.7380579937721397,3.9467282051448276,-7.868071490420256,6.293252372399593,7.896527000608941
9,-8.002465257577192,7.838099760930959,4.80529087306557,-6.067929260119584,-7.1261439346824,-3.4303994287092685,2.906254239327291,7.991655074796894,-6.541291026859594,4.395792910927575,-3.491555856088416,5.365465600539398,-5.477942324773704,2.1717788188441958,-4.866584640518347,-7.983133774923381,-2.8024216298983937,-8.002722669512057,1.119096196233091,8.011215533769336,5.39875383320344,-7.906741432895458,-8.01367646163818,-5.087420571049451,-7.284970434653198,7.9827232413431535,-2.1413629519897106,4.487268345888236,-7.915929663900043,-7.9642669349925015,-1.0830836442827108,-0.1121806429482195,0.29367269032058285,7.680172394144559,7.940152275153528,7.859970778543762,-7.899470562154516,-1.4268045132689733,3.5335715372767904,5.2108248343833985,6.993040882946292,-3.2789993605817607,5.294836439795673,-5.338749114402095,-7.2909409094064195,6.511016637342673,5.3001453884536485,-2.131753797426107,-7.963989488343552,-7.9868267506452035,7.796369021362564,3.8587980194484057,3.275089242167157,-7.914306721168581,-6.522214677145104,-8.019308674242534,-2.581025021035643,3.6681151713472353,5.240898529819914,-7.7645619834007675,1.089204943338962,1.339202982603891,-5.98231448695396,-7.824039261868217,-7.996955326284834,7.565240134116406,-7.978431613346862,5.363644912831856,-7.8402115932475205,7.8154166502838045,-6.670552046949471,-0.5618720740982565,7.740501355182536,-8.006778580432188,7.852382139353461,4.762948170754971,-7.660874723589679,-4.328841303904236,-1.2881951273623606,2.229632699956066,8.005264997347592,5.924636139127966,-2.9601064861342503,4.175177061397855,-3.5347958059347118,-7.330207258802149,-7.2879224201877175,3.88017179408204,-4.198469821255161,-7.7703504053976875,-6.700503157121831,-7.139386752043055,3.7451674789021787,-2.5871510713417596,-2.9684934490226462,-3.0351171914853126,-7.541264418003708,-5.814602062358661,7.961604365582083,-5.915819454789526,-1.3876852908969504,6.852903974128491,-7.7664270302227685,-7.9832834511174955,-7.915383367659571,-7.68927547761543,-8.004380030279172,-2.833549688370157,7.345850185111576,-4.766327631661619,-5.250702701054701,7.7340343058542835,7.161084589143146,-5.689184665075102,6.350488657091232,-3.841100630361649,7.95038417559571,6.637755656924936,-0.08129890908109004,5.087106055508759,-4.365637605428104,5.81684109732028,7.821215164773401,-5.349368850709363,-0.0836818399757001
